
\data\
ngram 1=215
ngram 2=5667
ngram 3=33537

\1-grams:
-1.394236	</s>
-99	<s>	-4.184845
-2.233268	a1	-3.447647
-2.718763	a2	-2.966592
-2.374151	a3	-3.170755
-2.039168	a4	-3.505666
-2.007143	a5	-3.876305
-2.318689	aa	-3.519782
-2.604656	ai1	-3.077955
-2.337204	ai2	-3.207696
-2.590552	ai3	-3.092026
-2.149794	ai4	-3.530935
-3.555387	ai5	-2.448415
-2.403158	an1	-3.277864
-2.599284	an2	-3.285077
-2.65997	an3	-3.022678
-2.27213	an4	-3.410344
-3.625845	an5	-2.697953
-2.480422	ang1	-3.206705
-2.768581	ang2	-3.504998
-2.934341	ang3	-2.748278
-2.494233	ang4	-3.049223
-3.686666	ang5	-2.603297
-2.640143	ao1	-3.244204
-2.941939	ao2	-3.340608
-2.244812	ao3	-3.29856
-2.042633	ao4	-3.638264
-5.026259	ao5	-0.8342572
-1.644655	b	-4.850735
-2.493687	c	-3.462827
-2.120618	ch	-4.402809
-1.375883	d	-4.39799
-3.069268	e1	-2.516868
-2.324075	e2	-3.358419
-3.047232	e3	-2.842749
-1.829412	e4	-3.713923
-1.747669	e5	-3.795654
-1.956591	ee	-3.89682
-3.348913	ei1	-2.596599
-2.511901	ei2	-3.372806
-2.867897	ei3	-3.017049
-2.527162	ei4	-3.15366
-3.741024	ei5	-1.885748
-2.456551	en1	-3.08687
-2.42327	en2	-3.257739
-2.694977	en3	-2.850075
-2.215163	en4	-3.465788
-2.589869	en5	-3.294883
-2.748159	eng1	-2.796927
-2.502699	eng2	-3.04224
-2.969899	eng3	-3.30911
-2.685249	eng4	-2.859801
-2.972632	eng5	-2.726125
-2.68695	er2	-2.856617
-4.123169	er3	-1.882358
-2.754418	er4	-2.791008
-4.291574	er5	-1.748015
-1.94153	f	-4.60766
-1.606918	g	-4.588427
-1.601261	h	-4.909039
-2.197508	i1	-3.345799
-2.001832	i2	-3.680393
-1.914613	i3	-3.628808
-1.600074	i4	-3.943332
-3.014025	i5	-2.571951
-2.802801	ia1	-2.87844
-4.291574	ia2	-1.505741
-3.530913	ia3	-3.02356
-2.411965	ia4	-3.131467
-3.064499	ia5	-2.822162
-2.265837	ian1	-3.277588
-2.292375	ian2	-3.250957
-2.785354	ian3	-2.759774
-2.103015	ian4	-3.440342
-3.760768	ian5	-2.171878
-3.152856	iang1	-3.122657
-3.175876	iang2	-2.54675
-2.650988	iang3	-3.030129
-2.56322	iang4	-2.980257
-4.549138	iang5	-1.344834
-2.552668	iao1	-3.128478
-3.179392	iao2	-2.507988
-3.036301	iao3	-2.849267
-2.403749	iao4	-3.14117
-5.269297	iao5	-0.67373
-2.810282	ie1	-3.464832
-2.993411	ie2	-3.294283
-2.694977	ie3	-3.189855
-2.533898	ie4	-3.011062
-3.29617	ie5	-2.347784
-1.4373	ii	-4.497052
-2.563434	in1	-3.321256
-1.896064	in2	-3.647261
-3.343728	in3	-2.941375
-2.63684	in4	-2.908188
-5.394235	in5	-0.5642524
-2.517633	ing1	-3.027325
-2.20037	ing2	-3.343036
-2.670507	ing3	-3.027226
-2.606068	ing4	-2.938915
-4.138964	ing5	-2.256691
-4.570327	iong1	-1.386488
-4.339879	iong2	-1.533141
-4.640908	iong3	-1.083922
-2.6544	iong4	-3.027991
-5.172387	iong5	-0.7279218
-3.231871	iu1	-2.467786
-2.619233	iu2	-2.96327
-2.131074	iu3	-3.412267
-2.121235	iu4	-3.422133
-3.968267	iu5	-1.853729
-2.632058	ix1	-2.952312
-2.14823	ix2	-3.395146
-2.75608	ix3	-2.9266
-1.810282	ix4	-3.732949
-2.429505	ix5	-3.113901
-2.885482	iy1	-2.997634
-4.473417	iy2	-1.224778
-3.675458	iy3	-1.940759
-2.6427	iy4	-3.039634
-3.299649	iy5	-2.593183
-3.850168	iz4	-1.818517
-5.026259	iz5	-0.8449042
-1.53906	j	-4.597632
-1.980378	k	-4.552948
-1.700568	l	-4.214822
-1.735049	m	-5.016973
-1.502253	n	-4.613154
-3.50029	o1	-2.514419
-3.947078	o2	-2.021168
-5.570325	o3	-0.4584487
-2.811416	o4	-3.46611
-4.725229	o5	-1.211643
-2.238495	ong1	-3.442484
-2.708494	ong2	-2.973937
-3.053132	ong3	-2.831656
-2.5361	ong4	-3.144947
-3.826035	ong5	-2.506808
-2.794353	oo	-3.074956
-2.768581	ou1	-2.921211
-3.492959	ou2	-2.802022
-2.787497	ou3	-3.099564
-2.43903	ou4	-3.104397
-3.214302	ou5	-2.671184
-2.705224	p	-3.491108
-1.877877	q	-4.656032
-2.255513	r	-3.608076
-2.181339	s	-3.625556
-1.384163	sh	-5.124519
-1.6982	sil	-3.845233
-1.91726	t	-4.019052
-2.588509	u1	-3.093808
-2.258256	u2	-3.286612
-2.421725	u3	-3.25904
-1.990373	u4	-3.552863
-3.067218	u5	-2.82233
-3.549138	ua1	-2.212599
-3.747506	ua2	-1.864806
-5.093205	ua3	-0.7601386
-2.416817	ua4	-3.263988
-4.528935	ua5	-1.277615
-5.093205	uai1	-0.8009276
-4.725229	uai2	-1.053553
-5.269297	uai3	-0.6651649
-2.550796	uai4	-3.72402
-2.835928	uan1	-2.901345
-2.795446	uan2	-3.089823
-2.88683	uan3	-2.703069
-2.951234	uan4	-2.592565
-5.871353	uan5	-0.2901585
-3.489341	uang1	-2.419683
-3.570328	uang2	-2.022773
-2.776886	uang3	-2.814782
-3.203905	uang4	-2.535316
-5.394235	uang5	-0.56627
-5.394235	ueng1	-0.5860526
-3.239914	ui1	-2.657435
-2.839142	ui2	-2.712379
-3.400066	ui3	-2.309056
-2.066877	ui4	-3.476446
-4.829964	ui5	-1.021342
-3.616085	un1	-2.274845
-3.213346	un2	-3.064148
-3.695266	un3	-2.111812
-2.564504	un4	-3.021052
-4.667237	un5	-1.260142
-2.381821	uo1	-3.161602
-2.53993	uo2	-3.344729
-2.044053	uo3	-3.49932
-2.234268	uo4	-3.309154
-4.093206	uo5	-2.250347
-1.657946	uu	-4.317187
-2.95543	v1	-3.319767
-2.98374	v2	-2.698938
-2.833135	v3	-3.447329
-2.634065	v4	-3.048539
-3.777936	v5	-1.976175
-4.408959	van1	-1.3307
-2.70552	van2	-2.975413
-3.613679	van3	-2.148283
-3.52111	van4	-2.220735
-3.781452	ve1	-1.86356
-3.113961	ve2	-3.162537
-4.695266	ve3	-1.073116
-2.586701	ve4	-2.9568
-5.394235	ve5	-0.5670094
-3.79581	vn1	-2.159634
-3.271474	vn2	-2.4331
-5.871353	vn3	-0.2831462
-3.764148	vn4	-2.53917
-5.394235	vn5	-0.5532255
-2.238091	vv	-3.628599
-1.630459	x	-4.201847
-1.893817	z	-4.257136
-1.598125	zh	-4.350357

\2-grams:
-1.378492	<s> aa	-0.3968396
-1.400859	<s> b	-1.387181
-2.257028	<s> c	0.05230212
-1.988585	<s> ch	-0.4007114
-1.262557	<s> d	-0.5892926
-0.9683368	<s> ee	-1.346379
-1.88385	<s> f	-0.4658967
-1.728948	<s> g	-1.088881
-1.46811	<s> h	-0.2748929
-1.285964	<s> ii	-0.7401743
-1.233106	<s> j	-0.2894766
-1.869681	<s> k	-0.744952
-1.911288	<s> l	-0.8583071
-1.684044	<s> m	-1.4156
-1.020922	<s> n	-1.363775
-1.581713	<s> oo	-1.129809
-2.744742	<s> p	-0.2476268
-1.57188	<s> q	-0.5892526
-1.779906	<s> r	-0.8197891
-1.82008	<s> s	-0.8519547
-1.335686	<s> sh	-1.247369
-0.9822857	<s> sil	1.022689
-1.60498	<s> t	-0.2214086
-1.283455	<s> uu	-0.2692612
-2.513348	<s> vv	0.2556057
-1.526284	<s> x	-0.7696689
-1.563322	<s> z	-0.4324248
-1.312188	<s> zh	-0.7926106
-1.313907	a1 </s>
-2.840815	a1 aa	0.05103716
-1.318043	a1 b	-0.6646637
-2.462098	a1 c	-0.4352461
-2.223216	a1 ch	-0.3262175
-0.9106484	a1 d	-0.9020621
-1.994737	a1 ee	-0.7786264
-1.890002	a1 f	-0.6570729
-1.524246	a1 g	-0.6987402
-1.324322	a1 h	-0.8224269
-1.221549	a1 ii	-0.4487197
-1.305751	a1 j	-0.5338907
-1.520918	a1 k	-0.8270646
-1.238516	a1 l	-0.6030793
-1.249024	a1 m	-1.009153
-1.507856	a1 n	-0.209547
-3.63819	a1 oo
-2.33716	a1 p	-0.4433254
-1.793092	a1 q	-0.269595
-2.106711	a1 r	-0.06322479
-1.55183	a1 s	-1.007048
-0.9859433	a1 sh	-0.6782013
-1.786931	a1 sil	0.08241969
-1.994737	a1 t	-0.06355304
-1.6888	a1 uu	-0.4194205
-1.882315	a1 vv	-0.8906475
-1.625352	a1 x	-0.512362
-1.724376	a1 z	-0.2310355
-0.9147339	a1 zh	-0.8537933
-1.255273	a2 </s>
-2.430997	a2 aa	-0.2349474
-1.480802	a2 b	-0.5614552
-1.64775	a2 ch	-1.180472
-1.161674	a2 d	-0.578289
-2.675778	a2 ee
-1.06654	a2 f	-1.601541
-1.584698	a2 g	-0.3013994
-1.810477	a2 h	-0.05390975
-0.9024796	a2 ii	-0.657708
-1.772688	a2 j	-0.1201847
-1.289577	a2 k	-1.235228
-1.20351	a2 l	-0.9278048
-1.94878	a2 m	-0.2906108
-1.64775	a2 n	0.1947358
-3.1529	a2 p
-1.922451	a2 q	-0.1936208
-0.940712	a2 r	-1.717364
-2.675778	a2 s
-1.445329	a2 sh	-0.5953964
-1.922451	a2 sil	-0.1350573
-2.55084	a2 t	-0.08409751
-1.772688	a2 uu	-0.4831123
-2.85187	a2 vv
-0.8065466	a2 x	-1.355236
-2.073718	a2 z	-0.05209135
-1.471658	a2 zh	-0.6565233
-1.133732	a3 </s>
-2.293224	a3 aa	-0.1602048
-1.557825	a3 b	-0.1319923
-2.196314	a3 c	-0.4458124
-1.781341	a3 ch	-0.5993208
-0.8985538	a3 d	-0.650934
-1.484507	a3 ee	-1.188619
-1.834587	a3 f	-0.7359757
-1.005983	a3 g	-1.187323
-1.538303	a3 h	-0.3747077
-1.211787	a3 ii	-0.3666102
-1.259298	a3 j	-0.5371497
-1.6778	a3 k	-0.6769114
-1.342008	a3 l	-0.4266114
-1.726492	a3 m	-0.6120746
-1.152952	a3 n	-0.5133215
-2.418163	a3 p	-0.8752113
-1.825247	a3 q	-0.400614
-2.117133	a3 r	-0.1640838
-2.050186	a3 s	-0.4173466
-1.187714	a3 sh	-0.6453063
-1.834587	a3 sil	0.03171402
-1.652246	a3 t	-0.323544
-1.421797	a3 uu	-0.6175675
-2.218591	a3 vv	-0.1589122
-1.393541	a3 x	-0.6620632
-1.90628	a3 z	-0.01098722
-1.198491	a3 zh	-0.6435513
-1.859125	a4 </s>
-3.230193	a4 aa	0.0640893
-1.399284	a4 b	-0.396807
-2.929163	a4 c	-0.1699924
-2.169496	a4 ch	-0.4183766
-1.470526	a4 d	-0.2093923
-2.11625	a4 ee	-0.1057795
-2.142057	a4 f	-0.1119869
-0.4862918	a4 g	-1.436904
-1.4978	a4 h	-0.5575007
-1.503874	a4 ii	-0.1513017
-1.377409	a4 j	-0.3942215
-2.039862	a4 k	-0.3032163
-1.692374	a4 l	-0.6496918
-1.526902	a4 m	-1.072222
-0.9291634	a4 n	-1.032467
-2.790861	a4 p	-0.02685104
-1.383547	a4 q	-1.022324
-2.230193	a4 r	-0.6212874
-2.489831	a4 s	-0.06997815
-1.535588	a4 sh	-0.6434201
-1.841027	a4 sil	-0.1837173
-1.902834	a4 t	-0.2069774
-1.290674	a4 uu	-0.5282531
-2.091891	a4 vv	-0.5752874
-1.312425	a4 x	-1.028186
-1.845482	a4 z	-0.6321623
-1.299499	a4 zh	-0.8326355
-0.2736548	a5 </s>
-1.611421	a5 aa	-0.6810443
-1.807369	a5 b	-0.5611331
-3.066899	a5 c	-0.1229079
-2.542054	a5 ch	-0.1568292
-1.336644	a5 d	-0.775388
-1.285635	a5 ee	-1.492128
-2.58552	a5 f	-0.3788776
-2.34576	a5 g	-0.5200796
-1.574239	a5 h	-0.9671316
-1.718146	a5 ii	-0.280578
-1.73394	a5 j	-0.7113045
-2.307971	a5 k	-0.299672
-2.28449	a5 l	-0.4181526
-1.934855	a5 m	-0.8103638
-1.205309	a5 n	-1.003846
-2.466334	a5 oo	0.25403
-3.563244	a5 p
-2.241024	a5 q	-0.4377251
-2.230805	a5 r	-0.518002
-2.372912	a5 s	-0.5086596
-1.688182	a5 sh	-0.7858521
-1.322694	a5 sil	-0.2959813
-2.116086	a5 t	-0.3751226
-1.514026	a5 uu	-0.806128
-3.066899	a5 vv	-0.1478696
-1.623724	a5 x	-0.8676311
-2.165304	a5 z	-0.6164238
-1.88655	a5 zh	-0.4423796
-2.707692	aa a1	-0.07473444
-3.55279	aa a4
-0.203318	aa a5	0.1506271
-0.7385423	aa ai1	-0.6777997
-2.95073	aa ai2
-3.25176	aa ai3
-1.435519	aa ai4	-0.2990785
-3.55279	aa ai5
-1.256125	aa an1	-0.5939845
-2.406662	aa an3	-0.3902043
-1.214333	aa an4	-0.1866381
-1.909337	aa ang2	-0.3326736
-3.25176	aa ao1
-2.707692	aa ao2
-3.075669	aa ao3
-1.862594	aa ao4	-0.09946465
-3.55279	aa ao5
-1.403614	ai1 </s>
-1.905209	ai1 aa	-0.4684305
-1.604179	ai1 b	-0.6002539
-2.469563	ai1 c	-0.09566417
-1.675872	ai1 ch	-0.5594776
-1.332438	ai1 d	-0.6266928
-2.152993	ai1 ee	-0.5388525
-1.36931	ai1 f	-1.364877
-1.623484	ai1 g	-0.4370244
-1.130216	ai1 h	-0.8991443
-1.225544	ai1 ii	-0.4109432
-1.434428	ai1 j	-0.6216627
-1.905209	ai1 k	0.01930764
-1.567967	ai1 l	-0.4912537
-1.965907	ai1 m	-0.5452667
-0.9245142	ai1 n	-0.9409829
-2.312694	ai1 p	-0.3850949
-2.036488	ai1 q	-0.1491968
-2.664877	ai1 r	-0.2709106
-2.225544	ai1 s	-0.03280681
-0.9594409	ai1 sh	-0.8590685
-1.698735	ai1 sil	-0.02666515
-0.7686263	ai1 t	-1.504261
-1.559367	ai1 uu	-0.6358387
-2.965907	ai1 vv
-1.511062	ai1 x	-0.8544164
-1.789816	ai1 z	-0.3891141
-1.391876	ai1 zh	-0.7804115
-1.440858	ai2 </s>
-2.689182	ai2 aa	0.1290964
-1.594761	ai2 b	-0.5085104
-2.492887	ai2 c	-0.2347238
-2.087122	ai2 ch	-0.2158225
-0.88592	ai2 d	-0.9096307
-2.102916	ai2 ee	-0.1898625
-2.015766	ai2 f	-0.5664788
-1.93222	ai2 g	-0.2788265
-1.741888	ai2 h	-0.429043
-0.6842467	ai2 ii	-1.296277
-1.52568	ai2 j	-0.5271373
-1.82671	ai2 k	-0.6373341
-1.570492	ai2 l	-0.5663179
-1.670957	ai2 m	-0.8803531
-1.257818	ai2 n	-0.5384768
-2.689182	ai2 p	-0.003220052
-1.900812	ai2 q	-0.5909736
-2.53428	ai2 r	-0.05197471
-2.420337	ai2 s	-0.215144
-0.622058	ai2 sh	-1.36664
-1.93222	ai2 sil	-0.2281076
-2.042918	ai2 t	-0.2039253
-1.301284	ai2 uu	-1.067893
-2.455099	ai2 vv	-0.06085789
-1.954496	ai2 x	-0.1625838
-1.604861	ai2 z	-0.5664815
-1.659219	ai2 zh	-0.3923778
-1.383406	ai3 </s>
-2.483659	ai3 aa	-0.07808122
-1.336551	ai3 b	-0.7488458
-3.281033	ai3 c
-1.749554	ai3 ch	-0.6321646
-0.9307854	ai3 d	-0.9089353
-1.525159	ai3 ee	-1.229326
-1.198248	ai3 f	-1.152321
-0.9821803	ai3 g	-1.49429
-1.789672	ai3 h	-0.2203729
-1.00228	ai3 ii	-0.6798838
-1.736965	ai3 j	-0.88328
-1.341514	ai3 k	-1.232536
-1.09919	ai3 l	-0.950669
-1.919306	ai3 m	-0.1738662
-1.618276	ai3 n	-0.2425116
-2.980003	ai3 p
-1.762519	ai3 q	-0.7316091
-2.377943	ai3 r	0.02592734
-1.461489	ai3 s	-1.777164
-1.556757	ai3 sh	-0.5973651
-1.900822	ai3 sil	0.1633673
-1.517605	ai3 t	-0.9528661
-1.736965	ai3 uu	-0.2893846
-1.86606	ai3 vv	-1.038545
-1.736965	ai3 x	-0.6616253
-2.201852	ai3 z	-0.4301102
-1.016216	ai3 zh	-1.179038
-1.431611	ai4 </s>
-2.442892	ai4 aa	-0.07290286
-1.216496	ai4 b	-0.6962119
-2.088177	ai4 c	0.02545387
-1.757858	ai4 ch	-0.22121
-1.155798	ai4 d	-0.4770644
-2.244524	ai4 ee	-0.2266139
-1.981283	ai4 f	-0.2650683
-1.456828	ai4 g	-0.6475947
-1.350578	ai4 h	-0.3613896
-1.251824	ai4 ii	-0.5950174
-0.7886649	ai4 j	-0.8079129
-1.607702	ai4 k	-0.1939613
-1.466373	ai4 l	-0.307843
-1.51482	ai4 m	-0.6713494
-1.250354	ai4 n	-0.3424913
-2.999743	ai4 oo	0.5698097
-2.680253	ai4 p	-0.03745931
-1.660948	ai4 q	-0.2323893
-1.807832	ai4 r	-0.5359288
-2.244524	ai4 s	0.02490681
-1.162937	ai4 sh	-0.5076296
-1.864313	ai4 sil	-0.2042528
-1.807832	ai4 t	0.2690659
-1.263764	ai4 uu	-0.2725811
-2.108862	ai4 vv	-0.1372995
-1.367537	ai4 x	-0.3533957
-1.551384	ai4 z	-0.3304352
-1.18257	ai4 zh	-0.4321039
-0.6211763	ai5 </s>
-2.019116	ai5 aa	-0.1417119
-1.206203	ai5 b	-0.4423471
-1.116026	ai5 d	-0.2836169
-1.718086	ai5 ee	-0.1181819
-2.320146	ai5 f
-2.019116	ai5 g	-0.5589846
-1.598243	ai5 h
-1.365904	ai5 ii	-0.3519057
-1.598243	ai5 j	-0.4168078
-0.8887825	ai5 l	-0.6147881
-1.598243	ai5 m	-0.03480154
-1.019116	ai5 n	-0.3196717
-1.843025	ai5 q
-2.320146	ai5 r
-2.320146	ai5 s
-1.475048	ai5 sh	-0.1115334
-1.417056	ai5 sil	0.09362969
-2.019116	ai5 t	-0.4558101
-1.365904	ai5 uu	-0.7610829
-1.598243	ai5 x	-0.1322612
-1.522772	ai5 z	0.1044738
-1.522772	ai5 zh	-0.1973947
-1.205896	an1 </s>
-2.670973	an1 aa	-0.1148883
-1.073896	an1 b	-0.8342265
-2.10662	an1 c	-0.4455977
-2.213075	an1 ch	-0.2855858
-1.131888	an1 d	-0.591697
-1.544068	an1 ee	-0.7014919
-1.900146	an1 f	-0.4145417
-1.385562	an1 g	-0.608406
-1.576253	an1 h	-0.4795828
-1.385562	an1 ii	-0.167003
-1.173881	an1 j	-0.4315927
-1.533849	an1 k	-0.8439796
-1.28937	an1 l	-0.6298519
-1.599116	an1 m	-0.9157361
-1.518957	an1 n	-0.145442
-3.167317	an1 oo	0.5171213
-2.189594	an1 p	-0.9438973
-1.389166	an1 q	-1.209237
-1.991226	an1 r	-0.3540477
-1.509306	an1 s	-1.01133
-0.8587529	an1 sh	-1.142848
-1.912045	an1 sil	-0.1768287
-1.924279	an1 t	-0.448653
-1.189594	an1 uu	-0.8626829
-1.599116	an1 vv	-1.405245
-1.79625	an1 x	-0.5654614
-1.79625	an1 z	-0.2108938
-1.434924	an1 zh	-0.3717504
-1.728238	an2 </s>
-2.550403	an2 aa	0.1159233
-1.728238	an2 b	-0.1492296
-3.272306	an2 c
-2.272306	an2 ch	-0.1755583
-1.472965	an2 d	-0.398663
-2.427208	an2 ee	-0.3467892
-2.550403	an2 f	-0.1448912
-1.825148	an2 g	-0.5557176
-0.4179998	an2 h	-1.66275
-1.54803	an2 ii	-0.2057831
-1.479914	an2 j	-0.398459
-2.193125	an2 k	-0.1617465
-1.716003	an2 l	-0.1487326
-0.6868451	an2 m	-1.421947
-1.628853	an2 n	0.003549278
-1.501454	an2 p	-1.119006
-2.427208	an2 q	-0.09037255
-1.840942	an2 r	-0.7974049
-2.158362	an2 s	-0.1101352
-1.403074	an2 sh	-0.646054
-1.950087	an2 sil	0.01501256
-2.318063	an2 t	-0.169163
-2.318063	an2 uu	-0.204544
-2.427208	an2 vv	-0.3019879
-1.910578	an2 x	-0.1679718
-1.649057	an2 z	-0.4393304
-1.348027	an2 zh	-0.5115319
-1.041393	an3 </s>
-2.734533	an3 aa	-0.2880293
-2.097711	an3 b	-0.2210357
-3.211654	an3 c
-2.257412	an3 ch	-0.05906341
-1.010257	an3 d	-0.6560311
-1.956382	an3 ee	-1.129822
-1.932901	an3 f	-0.1609253
-1.796681	an3 g	-0.1581567
-1.139772	an3 h	-1.231678
-0.8518189	an3 ii	-1.104346
-1.203054	an3 j	-0.3816231
-1.631871	an3 k	-0.8683341
-1.463466	an3 l	-0.4143567
-2.132473	an3 m	-0.268373
-1.813714	an3 n	-0.0281381
-2.910625	an3 p
-1.655352	an3 q	-0.4774885
-2.609594	an3 r	-0.03548764
-2.41428	an3 s	-0.04986537
-1.136107	an3 sh	-0.8388971
-2.257412	an3 sil	0.2246388
-2.170262	an3 t	-0.2638443
-1.869232	an3 uu	-0.190699
-2.308564	an3 vv	-0.6091248
-0.7316474	an3 x	-1.34544
-1.956382	an3 z	-0.2074302
-1.15475	an3 zh	-0.5999696
-1.379229	an4 </s>
-2.696247	an4 aa	-0.01570827
-1.376621	an4 b	-0.630816
-2.696247	an4 c	-0.009852067
-2.184364	an4 ch	-0.2653568
-1.101027	an4 d	-0.551927
-2.599337	an4 ee	-0.2914116
-1.748079	an4 f	-1.182097
-1.554014	an4 g	-0.3509837
-1.748079	an4 h	-0.5087727
-0.917192	an4 ii	-0.659636
-1.478763	an4 j	-0.3187041
-1.5865	an4 k	-0.9792253
-1.001642	an4 l	-1.270396
-1.654854	an4 m	-0.6433911
-0.9144918	an4 n	-0.9685347
-2.801963	an4 p	-0.3386638
-2.256914	an4 q	-0.05245435
-2.219126	an4 r	-0.2658757
-2.395217	an4 s	-0.3874423
-0.9375244	an4 sh	-1.032299
-2.008272	an4 sil	0.01777595
-1.080823	an4 t	-1.377631
-1.578148	an4 uu	-0.8420686
-2.320584	an4 vv	-0.04860526
-1.70171	an4 x	-0.466046
-1.835909	an4 z	-0.3037394
-1.344065	an4 zh	-0.403872
-1.206581	an5 </s>
-1.450599	an5 aa	-0.5712754
-1.293731	an5 b	-0.3591737
-2.247973	an5 ch
-1.770852	an5 d	-0.06337172
-1.946943	an5 ee
-2.247973	an5 g
-1.645913	an5 h	-0.1265046
-1.450599	an5 ii	-0.29324
-1.770852	an5 j	-0.1902108
-1.52607	an5 l	-0.4320843
-1.946943	an5 m	-0.4537967
-0.3185543	an5 n	-0.9953714
-1.946943	an5 q	-0.5079699
-2.247973	an5 r
-1.344883	an5 sh	-0.3526973
-1.247973	an5 sil	-0.1801658
-1.946943	an5 t	-0.4558101
-1.206581	an5 uu	-0.592732
-1.946943	an5 x
-1.946943	an5 zh	-0.5657444
-1.683541	ang1 </s>
-1.872598	ang1 aa	-0.4416997
-1.192455	ang1 b	-0.8742614
-1.301206	ang1 c	-1.456249
-1.847044	ang1 ch	-0.6070756
-1.301206	ang1 d	-0.5874767
-2.593737	ang1 ee	-0.1166808
-1.692142	ang1 f	-1.20239
-1.510298	ang1 g	-0.6648446
-1.89975	ang1 h	-0.1892819
-1.605782	ang1 ii	-0.3596518
-1.700916	ang1 j	-0.09494463
-2.029384	ang1 k	-0.2677283
-1.642924	ang1 l	-0.6289408
-1.046719	ang1 m	-1.282949
-0.7359732	ang1 n	-1.010971
-3.391112	ang1 oo
-2.21502	ang1 p	-0.8252749
-1.61296	ang1 q	-0.7826473
-1.959748	ang1 r	-0.6914541
-0.896957	ang1 sh	-0.8973502
-2.21502	ang1 sil	0.1497985
-1.976138	ang1 t	-0.1792861
-1.143138	ang1 uu	-1.165014
-1.650749	ang1 vv	-0.933502
-1.82291	ang1 x	-0.3691326
-2.160663	ang1 z	-0.2033983
-1.160663	ang1 zh	-0.7804816
-1.362757	ang2 </s>
-2.381217	ang2 aa	0.06075752
-1.120848	ang2 b	-0.8179086
-2.625998	ang2 c
-1.741391	ang2 ch	-0.2658665
-1.061727	ang2 d	-0.6367047
-2.381217	ang2 ee	-0.2712948
-1.534917	ang2 f	-0.5142992
-1.347244	ang2 g	-0.8737913
-1.239796	ang2 h	-0.5472575
-1.094519	ang2 ii	-0.8300249
-1.523336	ang2 j	-0.09323788
-1.324968	ang2 k	-1.098594
-1.7809	ang2 l	-0.04840538
-1.57164	ang2 m	-0.6019811
-1.760697	ang2 n	-0.2520173
-3.103119	ang2 oo
-2.625998	ang2 p
-1.440361	ang2 q	-0.7594697
-2.148877	ang2 r	-0.1219225
-2.103119	ang2 s	-0.4027463
-0.9328575	ang2 sh	-0.708343
-1.802089	ang2 sil	0.01009995
-1.120848	ang2 t	-1.303482
-1.324968	ang2 uu	-0.662142
-2.305745	ang2 vv	-0.1157536
-1.722908	ang2 x	-0.2817935
-1.347244	ang2 z	-0.5363487
-1.440361	ang2 zh	-0.3540072
-1.105009	ang3 </s>
-1.983275	ang3 aa	-0.3851708
-1.937518	ang3 b	-0.2472911
-2.937518	ang3 c
-2.460397	ang3 ch	-0.2342249
-0.7416182	ang3 d	-0.6868386
-2.636488	ang3 ee
-1.79139	ang3 f	-0.2687152
-1.682245	ang3 g	-0.3231606
-1.346453	ang3 h	-0.5662022
-1.460397	ang3 ii	-0.1776193
-1.034428	ang3 j	-0.6319125
-2.335458	ang3 k
-1.707069	ang3 l	-0.1818223
-2.215615	ang3 m	-0.03480154
-1.937518	ang3 n	0.06909832
-2.937518	ang3 p
-1.823575	ang3 q	-0.3798726
-2.034428	ang3 r	-0.1137982
-2.335458	ang3 s	-0.04109959
-1.419004	ang3 sh	-0.1946794
-2.09242	ang3 sil	0.1435234
-2.034428	ang3 t	-0.06821507
-0.6430517	ang3 uu	-0.8742358
-1.522545	ang3 vv	-1.007432
-1.937518	ang3 x	-0.1803621
-2.034428	ang3 z	0.1288067
-1.01844	ang3 zh	-0.7114977
-1.151997	ang4 </s>
-2.146857	ang4 aa	-0.5381861
-1.276936	ang4 b	-0.526763
-1.945943	ang4 c	-0.5642861
-2.098553	ang4 ch	-0.2476434
-1.122034	ang4 d	-0.6132294
-2.298125	ang4 ee	0.1015425
-1.885945	ang4 f	-0.2789385
-1.218944	ang4 g	-0.7475748
-1.131794	ang4 h	-1.024372
-1.298125	ang4 ii	-0.3691534
-1.372985	ang4 j	-0.498461
-1.914908	ang4 k	-0.02038068
-1.526048	ang4 l	-0.5832175
-1.377306	ang4 m	-1.034237
-1.209989	ang4 n	-0.7832488
-3.377306	ang4 oo
-2.474216	ang4 p	-0.08665552
-1.714548	ang4 q	-0.4305593
-2.098553	ang4 r	-0.4025013
-2.173186	ang4 s	-0.2850386
-1.377306	ang4 sh	-0.5424784
-1.833238	ang4 sil	-0.04854828
-1.621431	ang4 t	-0.7547362
-0.7192948	ang4 uu	-1.587077
-2.015579	ang4 vv	-0.3760977
-1.551232	ang4 x	-0.4641485
-1.809105	ang4 z	-0.01453668
-1.669736	ang4 zh	-0.2496369
-1.108339	ang5 </s>
-1.284431	ang5 b	-0.2852103
-2.187521	ang5 c
-1.886491	ang5 ch
-0.9087671	ang5 d	-0.3475078
-1.886491	ang5 ee
-1.886491	ang5 f
-1.886491	ang5 g
-1.390146	ang5 h
-1.187521	ang5 ii	-0.2715141
-0.9834008	ang5 j	-0.1892733
-1.585461	ang5 k	-0.3133556
-1.233278	ang5 l	-0.0615357
-1.7104	ang5 m
-1.342423	ang5 n	-0.05377322
-1.465618	ang5 q	-0.1076441
-1.7104	ang5 r
-2.187521	ang5 s
-1.041393	ang5 sh	-0.195679
-1.284431	ang5 sil	-0.2073651
-1.886491	ang5 t
-1.7104	ang5 uu
-1.390146	ang5 x	-0.2043961
-1.585461	ang5 z
-1.585461	ang5 zh	-0.02796929
-1.253746	ao1 </s>
-2.32838	ao1 aa	-0.06048086
-1.83353	ao1 b	-0.259467
-2.93044	ao1 c
-1.588017	ao1 ch	-0.7428443
-0.6597608	ao1 d	-1.059533
-1.869742	ao1 ee	-0.7837806
-2.277227	ao1 f	-0.3166567
-1.568712	ao1 g	-0.5508884
-0.8851166	ao1 h	-1.416791
-1.598001	ao1 ii	-0.3980446
-1.640405	ao1 j	-0.3427852
-1.249198	ao1 k	-1.149177
-1.453318	ao1 l	-0.5841377
-2.117526	ao1 m	-0.1143122
-1.72632	ao1 n	-0.1042309
-2.509567	ao1 p
-1.90925	ao1 q	-0.4168719
-2.152288	ao1 r	-0.1417353
-1.784312	ao1 s	-1.009557
-1.550228	ao1 sh	-0.3939854
-1.952716	ao1 sil	-0.0531624
-2.509567	ao1 t
-1.640405	ao1 uu	-0.5200701
-1.491107	ao1 vv	-0.835349
-0.8678576	ao1 x	-1.196904
-1.507194	ao1 z	-0.5234045
-1.475595	ao1 zh	-0.7483699
-1.783802	ao2 </s>
-2.929929	ao2 aa
-1.398451	ao2 b	-0.5401343
-2.6289	ao2 c
-2.452808	ao2 ch	-0.2342249
-1.398451	ao2 d	-0.5355474
-1.753838	ao2 ee	-0.35172
-2.6289	ao2 f
-1.815986	ao2 g	-0.3947774
-0.736805	ao2 h	-1.777451
-0.7150857	ao2 ii	-1.807101
-1.103855	ao2 j	-0.9000103
-2.32787	ao2 k
-1.753838	ao2 l	-0.635058
-2.132555	ao2 m	-0.3518675
-2.132555	ao2 n	-0.001452222
-2.929929	ao2 p
-1.296461	ao2 q	-1.50708
-2.929929	ao2 r
-1.699481	ao2 s	-0.577487
-1.753838	ao2 sh	-0.2128153
-2.32787	ao2 sil	-0.08973871
-2.929929	ao2 t
-1.338865	ao2 uu	-0.9928302
-0.6969334	ao2 x	-1.344667
-2.132555	ao2 z	-0.1893859
-1.72581	ao2 zh	-0.4106505
-0.9871618	ao3 </s>
-1.813735	ao3 aa	-0.7101543
-1.215029	ao3 b	-0.8944857
-2.48052	ao3 c	-0.3394584
-1.902372	ao3 ch	-0.5325662
-1.114765	ao3 d	-0.6226735
-1.813735	ao3 ee	0.5515919
-1.626648	ao3 f	-1.029279
-1.459331	ao3 g	-0.86157
-1.100309	ao3 h	-1.05579
-1.323452	ao3 ii	-0.386745
-1.682166	ao3 j	-0.3022825
-2.135287	ao3 k	-0.2867878
-1.439128	ao3 l	-0.7228841
-1.973436	ao3 m	-0.6222494
-1.059622	ao3 n	-0.6226674
-3.626648	ao3 oo
-2.512705	ao3 p	-0.3204058
-1.135287	ao3 q	-1.304274
-1.973436	ao3 r	-0.4363487
-2.304429	ao3 s	-0.01583111
-1.338847	ao3 sh	-0.6727279
-1.547467	ao3 sil	-0.1251305
-1.848497	ao3 t	-0.279916
-1.329983	ao3 uu	-0.9644086
-2.626648	ao3 vv	-0.2305457
-1.230449	ao3 x	-0.947132
-1.910645	ao3 z	-0.06329399
-1.192079	ao3 zh	-0.7930319
-1.158543	ao4 </s>
-2.029448	ao4 aa	0.4197397
-1.646945	ao4 b	-0.2166594
-1.234396	ao4 c	-1.789533
-2.205539	ao4 ch	-0.1677631
-0.7195478	ao4 d	-1.109501
-1.514922	ao4 ee	-0.650033
-2.249005	ao4 f	-0.1930825
-1.738884	ao4 g	-0.5038929
-1.783466	ao4 h	-0.4281056
-1.330478	ao4 ii	-0.2400743
-1.670426	ao4 j	-0.3662271
-2.226729	ao4 k	-0.356251
-1.164147	ao4 l	-0.8355411
-0.9775304	ao4 m	-1.521863
-1.222407	ao4 n	-0.6101768
-2.925699	ao4 oo	0.1318993
-3.031415	ao4 p
-1.486366	ao4 q	-1.059512
-2.260587	ao4 r	-0.1540633
-1.649812	ao4 s	-0.8533767
-1.249005	ao4 sh	-0.7670201
-1.714845	ao4 sil	-0.1418629
-1.971456	ao4 t	-0.3037711
-1.532124	ao4 uu	-0.5989448
-2.310275	ao4 vv	-0.7080243
-1.573516	ao4 x	-0.6832933
-1.795365	ao4 z	-0.4735994
-1.412148	ao4 zh	-0.5342224
-0.90309	ao5 </s>
-0.90309	ao5 g
-0.90309	ao5 h
-0.4259687	ao5 ii	-0.2894154
-0.90309	ao5 l
-1.179454	b a1	-0.6292037
-3.022609	b a2	-0.1649135
-1.594271	b a3	-0.2007511
-2.971456	b a4	-0.3185915
-1.038926	b a5	0.4010651
-2.109457	b ai2	-0.9136599
-1.201423	b ai3	0.2720528
-2.658527	b ai4	-0.2069776
-2.345915	b ai5	-0.1940585
-1.834032	b an1	-0.1964431
-3.925699	b an2	-0.5608238
-2.682661	b an3	-0.3868167
-1.248092	b an4	-0.05157912
-1.383496	b ang1	-1.514063
-2.527759	b ang3	-0.449041
-1.509891	b ao1	0.3765014
-1.73677	b ao2	-1.62266
-1.452942	b ao3	-0.2765586
-1.823608	b ao4	-0.7917656
-3.381631	b ei1	-0.1607474
-3.022609	b ei2	-1.20586
-1.943428	b ei3	-0.5085819
-2.065361	b ei4	-0.1040611
-2.554631	b ei5	-0.3032474
-3.504826	b en1	-0.3547667
-3.080601	b en2	-0.3264756
-1.498375	b en3	0.299682
-3.749608	b en4
-3.925699	b eng2
-4.226729	b eng4
-3.925699	b i1
-3.185336	b i2	-0.3031495
-1.644665	b i3	-1.057741
-1.930064	b i4	-0.6465155
-1.130514	b ian1	1.205554
-1.702982	b ian4	0.3408451
-3.504826	b ian5	-0.2382654
-2.369396	b iao1	-0.539885
-1.978755	b iao3	-0.4457651
-1.765831	b ie2	-0.1374186
-2.99628	b in1	-0.07451332
-3.272486	b ing1	-0.2003936
-3.749608	b ing3
-1.917099	b ing4	0.1711022
-3.925699	b ing5
-1.988683	b o1	-0.1726374
-2.536533	b o2	-0.2763115
-3.504826	b o4	-0.341863
-1.030276	b u2	-1.155096
-2.363406	b u3	-0.1251555
-0.8107544	b u4	-0.001219749
-1.65502	b u5	-0.7018038
-2.775792	c a1	-0.1409542
-3.377852	c ai1
-0.7587591	c ai2	0.1581607
-1.360819	c ai3	-1.04491
-2.201761	c ai4	-0.1206899
-3.377852	c ai5
-0.6702822	c an1	-0.3318781
-2.532754	c an2	-0.1553188
-3.377852	c an3
-2.42361	c ang1	-0.6086283
-2.775792	c ang2	-0.1434067
-1.705755	c ao1	-0.9756277
-2.263909	c ao2	-0.1657533
-2.055633	c ao3	-0.2133291
-1.257278	c e4	-0.1322463
-1.930694	c eng2	-0.4158469
-2.099099	c iy2	0.06071031
-1.621978	c iy3	-0.03000039
-0.7856756	c iy4	-0.1853182
-2.580478	c ong1	-0.1154413
-1.113035	c ong2	-0.38959
-3.377852	c ou4
-2.775792	c u1	-0.1839793
-1.585461	c u4	-0.9824426
-3.377852	c uan4
-2.532754	c ui1	-0.308396
-2.532754	c ui4	-0.3748418
-3.377852	c ui5
-1.480225	c un1	-0.204165
-1.244313	c un2	-0.6603065
-3.377852	c un4
-3.377852	c uo1
-1.313394	c uo4	-0.8951524
-2.171033	ch a1	-0.3664967
-0.9094574	ch a2	-0.04753017
-2.159752	ch a4	-0.6694496
-2.847727	ch a5	-0.1311903
-2.043247	ch ai1	-0.327794
-3.028914	ch ai2	-0.415662
-1.837003	ch an2	-1.316297
-1.505304	ch an3	-0.2214256
-2.750817	ch ang1	-0.05784696
-0.8592794	ch ang2	-0.3579701
-1.443321	ch ang3	-0.1169897
-2.232303	ch ang4	-0.4685637
-1.73798	ch ao1	-0.9241104
-2.604689	ch ao2	-0.0876197
-2.750817	ch ao3	-0.2510668
-1.215523	ch e1	-0.08749163
-3.028914	ch e3	-0.3352041
-2.495544	ch e4	-0.2474023
-3.750817	ch en1
-2.107364	ch en2	0.06403962
-3.449787	ch en4
-1.905719	ch eng1	-0.4251869
-0.8450209	ch eng2	0.03900623
-3.449787	ch eng3
-3.750817	ch eng5
-2.107364	ch ix1	-0.2730213
-1.424481	ch ix2	0.2778416
-3.750817	ch ix3
-3.750817	ch ix4
-1.29903	ch ong1	-0.522738
-1.647013	ch ong2	-0.9943625
-2.709424	ch ou1	-0.4061777
-2.796574	ch ou2	-0.1163783
-0.9208701	ch u1	-0.007297039
-1.701599	ch u2	-0.7994454
-1.379749	ch u3	-0.3925675
-1.650446	ch u4	-0.5765565
-2.604689	ch uan1	-0.2069247
-1.697738	ch uan2	-0.6928693
-3.273695	ch uan4	-0.2829041
-2.847727	ch uang1	-0.1263679
-3.273695	ch uang2
-3.750817	ch uang3
-1.944637	ch uang4	-0.8122697
-3.028914	ch ui1	-0.04519793
-3.449787	ch ui2
-2.194514	ch un1	-0.02607623
-2.709424	ch un2
-3.080529	d a1	-0.6409674
-2.019831	d a2	-0.4350028
-1.525156	d a3	-0.9923935
-1.595136	d a4	-0.4371756
-4.495502	d a5
-3.173283	d ai1	-0.612321
-4.495502	d ai3
-1.677277	d ai4	-0.1460088
-4.495502	d ai5
-1.962748	d an1	-0.63848
-3.698128	d an3	-0.3402903
-1.934401	d an4	-0.6901716
-2.022746	d ang1	-1.31085
-3.24023	d ang2	-0.9404672
-2.22599	d ang3	-0.3774953
-2.474313	d ang4	-0.2916579
-3.893443	d ao1	-0.1817401
-4.018382	d ao2	-0.6036746
-2.212202	d ao3	-0.4092747
-1.155853	d ao4	0.8767838
-4.018382	d ao5
-2.034605	d e2	-0.08880734
-1.662994	d e5	0.6890905
-2.139477	d ei3	-0.2268287
-2.466119	d eng1	-0.9253054
-3.45411	d eng2	-0.6757541
-1.754351	d eng3	-0.2141252
-3.004141	d eng4	-0.9132636
-2.409143	d i1	-0.3046394
-3.15308	d i2	-0.7790543
-2.45018	d i3	-0.4763921
-0.3912547	d i4	0.1672864
-3.291383	d i5	-0.1793697
-3.7736	d ian1	-0.5058693
-3.416322	d ian2	-0.4986236
-1.791352	d ian3	-0.5003749
-1.283582	d ian4	-0.6903076
-3.7736	d iao1	-0.1139762
-2.245083	d iao4	-0.6712284
-3.893443	d iao5	0.1299496
-4.018382	d ie1
-3.033105	d ie2	-1.432065
-3.495503	d ing1	-0.1492254
-3.495503	d ing3	-0.3202282
-1.675959	d ing4	0.3336575
-3.495503	d iu1	-0.4282261
-2.190151	d ong1	0.3397048
-2.675959	d ong3	-0.5870734
-1.710885	d ong4	-0.2236633
-2.015496	d ou1	-1.369992
-2.964024	d ou4	-0.4013122
-4.495502	d ou5
-1.615261	d u1	-0.7022583
-2.434805	d u2	0.1448116
-3.698128	d u3	-0.1076759
-2.049899	d u4	0.238448
-3.24023	d u5	-0.1945643
-3.291383	d uan1	-0.135141
-4.194473	d uan2	-0.5357133
-1.862034	d uan3	-1.539621
-2.409143	d uan4	-0.1515827
-1.037772	d ui4	0.07879567
-4.018382	d un1
-3.381559	d un4	-0.1801189
-1.47225	d uo1	0.3714471
-3.495503	d uo2	-0.1697695
-4.194473	d uo5
-1.212392	e1 </s>
-2.081554	e1 aa	-0.09721777
-1.762064	e1 b	-0.2738795
-2.081554	e1 ch
-1.160004	e1 d	-0.411117
-2.081554	e1 ee	-0.1729108
-1.958359	e1 f	-0.256197
-1.247155	e1 g	-0.8066444
-1.326336	e1 h	-0.5578652
-1.356299	e1 ii	-0.2660433
-0.9113625	e1 j	-0.8777087
-1.958359	e1 k	-0.1580066
-1.079181	e1 l	-0.6153628
-1.599337	e1 m	-0.5656112
-1.131359	e1 n	-0.2682728
-2.803457	e1 oo
-1.803457	e1 p	-0.2602234
-1.657329	e1 q	-0.6482404
-2.006083	e1 r	0.01350811
-1.762064	e1 s	-0.4996114
-1.113261	e1 sh	-0.3757143
-1.724276	e1 sil	-0.1013343
-1.958359	e1 t	-0.2734061
-1.762064	e1 uu	-0.1651963
-2.201397	e1 vv	-0.1919205
-1.018127	e1 x	-0.6540017
-1.762064	e1 z	-0.1333671
-1.388484	e1 zh	-0.173594
-1.440195	e2 </s>
-2.547405	e2 aa	0.1337332
-1.672344	e2 b	-0.4062037
-2.750031	e2 c	-0.1640074
-2.225186	e2 ch	-0.1259817
-1.146005	e2 d	-0.6948906
-2.316957	e2 ee	0.00335139
-1.807043	e2 f	-0.4208049
-1.633592	e2 g	-0.5203115
-1.741225	e2 h	-0.3674787
-0.4043907	e2 ii	-1.343926
-1.593163	e2 j	-0.1641328
-1.924156	e2 k	-0.7047396
-1.547405	e2 l	-0.4887062
-1.672344	e2 m	-0.5884375
-1.486708	e2 n	-0.1169304
-1.799217	e2 p	-0.9426962
-2.003337	e2 q	-0.4371613
-1.518022	e2 r	-1.257214
-2.506013	e2 s	-0.2902754
-1.174493	e2 sh	-0.793519
-2.292133	e2 sil	0.1333299
-1.417072	e2 t	-0.8874485
-1.741225	e2 uu	-0.26768
-2.343286	e2 vv	-0.3099844
-1.617987	e2 x	-0.4214104
-1.383053	e2 z	-0.4353946
-1.569682	e2 zh	-0.626919
-1.347655	e3 </s>
-1.280708	e3 b	-0.607294
-2.027402	e3 c	-0.1640074
-1.745595	e3 ch	-0.5854027
-1.256575	e3 d	-0.1816416
-2.222717	e3 ee	-0.3850645
-1.979678	e3 f	-0.07266027
-1.648685	e3 g	-0.1259108
-1.745595	e3 h	-0.3352908
-1.569504	e3 ii	-0.05999362
-1.502557	e3 j	-0.1585084
-1.921687	e3 k	-0.09662805
-1.979678	e3 l	-0.09924553
-2.222717	e3 m	-0.2899181
-0.4268365	e3 n	-0.9576963
-2.523746	e3 p	-0.5600533
-1.979678	e3 q	-0.07335006
-2.222717	e3 r
-2.523746	e3 s
-0.771698	e3 sh	-0.6877772
-1.870534	e3 sil	-0.1587909
-1.824776	e3 t	-0.1349749
-1.569504	e3 uu	-0.1063291
-2.824776	e3 vv
-1.546023	e3 x	-0.2438307
-1.824776	e3 z	0.07076389
-2.027402	e3 zh	-0.0917925
-1.564863	e4 </s>
-2.865893	e4 aa	-0.1379361
-0.9371561	e4 b	-1.083583
-2.317709	e4 c	-0.2998205
-2.263833	e4 ch	-0.295244
-1.418735	e4 d	-0.4468988
-1.886648	e4 ee	-0.2290255
-1.637151	e4 f	-0.5561833
-0.5877496	e4 g	-1.56122
-1.238527	e4 h	-0.655221
-1.139982	e4 ii	-0.6215441
-1.39265	e4 j	-0.4237587
-1.955625	e4 k	-0.2593998
-1.514355	e4 l	-0.430783
-1.840587	e4 m	-0.506067
-1.661773	e4 n	-0.1852071
-3.564863	e4 oo
-2.627011	e4 p	-0.2089323
-1.556263	e4 q	-0.5303089
-1.829797	e4 r	-0.7997764
-1.945074	e4 s	-0.6051329
-1.280809	e4 sh	-0.8787712
-1.934775	e4 sil	-0.06554562
-2.082943	e4 t	-0.1251329
-1.689802	e4 uu	-0.6041502
-1.534129	e4 vv	-0.5367194
-1.444289	e4 x	-0.7235136
-2.117705	e4 z	-0.1427921
-1.373599	e4 zh	-0.5190775
-0.7085807	e5 </s>
-2.14145	e5 aa	0.01133001
-1.44886	e5 b	-0.3740329
-2.399445	e5 c	-0.1456301
-1.922324	e5 ch	-0.3763835
-1.293132	e5 d	-0.350104
-1.801502	e5 ee	-0.3897489
-1.903613	e5 f	-0.3698437
-1.676563	e5 g	-0.7309312
-1.299595	e5 h	-0.4934111
-1.096779	e5 ii	-0.4999403
-1.325761	e5 j	-0.4005708
-1.807751	e5 k	-0.2255834
-1.579653	e5 l	-0.5846275
-1.540522	e5 m	-0.7524458
-1.287397	e5 n	-0.5298405
-2.868448	e5 oo	0.3966975
-2.532656	e5 p	-0.1689789
-1.658338	e5 q	-0.4848115
-2.066816	e5 r	-0.4326609
-2.051839	e5 s	-0.2436915
-1.073728	e5 sh	-1.187217
-1.484235	e5 sil	-0.1960827
-1.767695	e5 t	-0.3834931
-1.306817	e5 uu	-0.2967266
-1.454404	e5 vv	-1.079579
-1.526026	e5 x	-0.3577368
-1.731024	e5 z	-0.3769162
-1.45814	e5 zh	-0.5246568
-3.312759	ee e1	-0.1876412
-1.293643	ee e2	0.01398897
-1.069101	ee e4	0.4340458
-1.744557	ee ei4	-0.4254203
-1.244573	ee en1	0.5906538
-3.437698	ee en2	-0.2845993
-0.3653253	ee en4	0.5885835
-0.7304115	ee er2	0.4205854
-2.166631	ee er3	0.2232943
-0.7978793	ee er4	0.3693287
-2.335035	ee er5	0.2529885
-1.678648	ei1 </s>
-2.523746	ei1 aa
-1.678648	ei1 b	-0.1913653
-0.1223459	ei1 ch	-2.035743
-1.726372	ei1 d	-0.37311
-2.222717	ei1 f	-0.5499264
-1.921687	ei1 g	-0.3250999
-2.222717	ei1 h
-2.046625	ei1 ii	-0.259331
-1.726372	ei1 j	-0.3401585
-2.046625	ei1 l
-2.222717	ei1 m	-0.5489908
-2.523746	ei1 p
-2.222717	ei1 q
-2.523746	ei1 r
-2.046625	ei1 s	-0.2688517
-1.921687	ei1 sh	-0.1765405
-2.523746	ei1 sil
-2.222717	ei1 t
-2.523746	ei1 uu
-2.222717	ei1 vv	-0.3629768
-1.444565	ei1 x	-0.4314124
-1.569504	ei1 zh	-0.1198922
-1.897248	ei2 </s>
-3.058616	ei2 aa
-1.979435	ei2 b	-0.4546938
-2.183555	ei2 c	-1.154456
-2.104373	ei2 ch	-0.1293306
-1.63537	ei2 d	-0.2396446
-3.058616	ei2 ee	-0.4936796
-1.706433	ei2 f	-1.032046
-1.490414	ei2 g	-0.8523099
-2.359646	ei2 h	-0.1630032
-0.1973802	ei2 ii	-2.332305
-1.726177	ei2 j	-0.475603
-2.104373	ei2 k	-0.5611136
-1.546732	ei2 l	-0.8491199
-1.841132	ei2 m	-0.9680915
-2.037426	ei2 n	-0.1149095
-2.882524	ei2 p
-1.882524	ei2 q	-0.6016771
-2.456556	ei2 r	-0.7924222
-2.637743	ei2 s	0.006183013
-1.259275	ei2 sh	-0.7947674
-1.928282	ei2 sil	0.02527839
-1.736397	ei2 t	-0.4218628
-1.496323	ei2 uu	-0.7531149
-2.562272	ei2 vv	-0.5009119
-1.897248	ei2 x	-0.3460253
-1.997918	ei2 z	-0.6875086
-2.318253	ei2 zh	-0.05719626
-1.748619	ei3 </s>
-2.52677	ei3 aa	0.1375734
-1.588918	ei3 b	-0.3429731
-1.889948	ei3 c	-1.036251
-2.049649	ei3 ch	-0.1654304
-1.52677	ei3 d	-0.2554458
-2.52677	ei3 ee	-0.5365767
-1.424108	ei3 f	-0.7252132
-0.694261	ei3 g	-0.789097
-1.588918	ei3 h	-0.1827071
-1.296321	ei3 ii	-0.4641764
-0.7837831	ei3 j	-0.9869485
-2.206517	ei3 k	-0.2865266
-1.748619	ei3 l	-0.2016818
-2.281988	ei3 m	-0.2466375
-1.240463	ei3 n	-0.9055793
-2.401831	ei3 p	-0.5267986
-1.661469	ei3 q	-0.4247378
-3.003891	ei3 r
-2.401831	ei3 s	-0.207011
-1.681672	ei3 sh	0.0402399
-1.962498	ei3 sil	0.02577427
-1.090077	ei3 t	-0.8100961
-1.661469	ei3 uu	-0.3225073
-1.184347	ei3 vv	-1.31247
-1.681672	ei3 x	-0.3513632
-2.049649	ei3 z	-0.08655128
-1.152633	ei3 zh	-0.9499471
-1.02011	ei4 </s>
-2.230449	ei4 aa	-0.6866348
-1.481069	ei4 b	-0.3482334
-2.441302	ei4 c	-0.230395
-1.897234	ei4 ch	-0.1756204
-0.8167624	ei4 d	-0.7196652
-2.140272	ei4 ee	0.1667443
-1.731608	ei4 f	-0.5273632
-1.867271	ei4 g	-0.2822847
-1.310969	ei4 h	-0.5034261
-0.9211464	ei4 ii	-0.639203
-1.265211	ei4 j	-0.3776363
-2.140272	ei4 k	-0.1331324
-1.279934	ei4 l	-0.6461737
-1.663151	ei4 m	-0.2381135
-1.217287	ei4 n	-0.4308215
-3.344392	ei4 oo
-2.622489	ei4 p	-0.1461623
-1.753328	ei4 q	-0.7421988
-1.475161	ei4 r	-1.015612
-1.721143	ei4 s	-0.5705001
-1.207672	ei4 sh	-0.5430981
-1.78809	ei4 sil	-0.2502909
-1.897234	ei4 t	-0.2211969
-1.518317	ei4 uu	-0.4392141
-2.065639	ei4 vv	-0.5279661
-1.566241	ei4 x	-0.4473028
-1.566241	ei4 z	-0.6127881
-1.457902	ei4 zh	-0.255977
-0.461441	ei5 </s>
-1.656418	ei5 aa	-0.2021795
-2.133539	ei5 b
-1.656418	ei5 ee
-1.832509	ei5 f
-2.133539	ei5 g
-0.9294189	ei5 h	-0.9093878
-1.832509	ei5 ii
-1.531479	ei5 j	-0.09778356
-2.133539	ei5 k
-1.656418	ei5 m
-1.230449	ei5 n	-0.1051299
-2.133539	ei5 r
-2.133539	ei5 s
-1.133539	ei5 sh	-0.4050652
-1.133539	ei5 sil	-0.04601642
-2.133539	ei5 t
-2.133539	ei5 uu
-1.019596	ei5 x	-0.8713998
-1.656418	ei5 z	-0.3863028
-1.531479	ei5 zh	-0.7144002
-1.181977	en1 </s>
-2.210853	en1 aa	0.2172893
-1.262685	en1 b	-0.5629702
-3.113943	en1 c
-2.373581	en1 ch	-0.1710343
-1.176927	en1 d	-0.5203506
-1.423747	en1 ee	-0.5478538
-1.227453	en1 f	-1.093725
-1.615633	en1 g	-0.5966737
-1.339426	en1 h	-0.8009332
-1.68258	en1 ii	-0.2676041
-1.227453	en1 j	-0.672982
-1.952575	en1 k	-0.5051203
-1.896459	en1 l	-0.1057637
-1.98361	en1 m	-0.5656407
-0.8784149	en1 n	-1.336548
-3.113943	en1 oo	0.5171213
-2.460731	en1 p	-0.224665
-1.377547	en1 q	-0.9013352
-2.017033	en1 r	-0.2540057
-2.373581	en1 s	0.05467248
-1.256611	en1 sh	-0.5950915
-1.909823	en1 sil	-0.06736511
-1.622582	en1 t	-0.5616038
-1.432702	en1 uu	-0.760515
-2.335792	en1 vv	0.04999161
-1.666785	en1 x	-0.4664594
-1.98361	en1 z	-0.08145222
-0.7876075	en1 zh	-1.146361
-1.422937	en2 </s>
-2.650868	en2 aa	0.07541844
-1.518824	en2 b	-0.389393
-2.217793	en2 c	-0.6701618
-2.545152	en2 ch	-0.1412903
-1.195389	en2 d	-0.4981139
-1.929729	en2 ee	-0.9368579
-1.904174	en2 f	-0.6460236
-1.684814	en2 g	-0.7241213
-1.648902	en2 h	-0.7323557
-1.635329	en2 ii	-0.2313821
-1.422937	en2 j	-0.3015035
-1.880041	en2 k	-0.3724977
-1.916764	en2 l	-0.3977832
-0.3339651	en2 m	-1.676228
-1.89194	en2 n	-0.1973241
-3.448242	en2 oo
-2.369061	en2 p	-0.2187137
-2.016879	en2 q	-0.3393272
-2.40685	en2 r	-0.09306228
-2.971121	en2 s	-0.1335269
-1.351332	en2 sh	-0.3923229
-2.334299	en2 sil	-0.2267208
-1.835459	en2 t	-0.512531
-1.529164	en2 uu	-0.5106298
-1.225526	en2 vv	-1.52548
-1.758046	en2 x	-0.4179688
-1.880041	en2 z	-0.2601258
-1.615734	en2 zh	-0.4869552
-1.87564	en3 </s>
-3.17667	en3 aa
-1.331572	en3 b	-1.315165
-1.39134	en3 c	-1.707638
-2.27358	en3 ch	-0.1407694
-0.7583687	en3 d	-1.140708
-2.097489	en3 ee	-1.02455
-2.222427	en3 f	-0.4177605
-0.9262499	en3 g	-1.678933
-1.946221	en3 h	-0.847426
-1.585605	en3 ii	-0.5927635
-1.27358	en3 j	-1.068388
-2.000579	en3 k	-0.8566695
-1.714272	en3 l	-0.4655432
-0.5713649	en3 m	-1.780166
-2.000579	en3 n	-0.3510242
-2.699549	en3 p	-0.6059602
-2.097489	en3 q	-0.3093699
-1.495429	en3 r	-1.218391
-2.57461	en3 s
-1.284575	en3 sh	-0.7614348
-2.17667	en3 sil	0.08584559
-2.222427	en3 t	-0.2099821
-2.87564	en3 uu
-1.436307	en3 vv	-1.164907
-1.97255	en3 x	-0.2791903
-2.331572	en3 z	0.05566876
-1.596886	en3 zh	-0.6701638
-0.8667092	en4 </s>
-2.05423	en4 aa	-0.2839204
-1.552486	en4 b	-0.5595255
-2.7532	en4 c	-0.1466607
-2.224926	en4 ch	-0.3002097
-1.160746	en4 d	-0.4383428
-1.237989	en4 ee	0.01170337
-2.088088	en4 f	-0.3826977
-2.033041	en4 g	-0.3840166
-0.9814287	en4 h	-0.8024369
-1.433573	en4 ii	-0.487552
-1.391472	en4 j	-0.6683007
-1.923896	en4 k	-0.0651949
-1.94872	en4 l	0.05025822
-1.665064	en4 m	-0.5328579
-0.8667092	en4 n	-0.9246938
-2.276079	en4 oo	0.00696063
-2.858916	en4 p	-0.1043747
-1.775476	en4 q	-0.5484197
-1.966094	en4 r	-0.5823023
-2.209132	en4 s	-0.5782365
-1.368488	en4 sh	-0.309286
-1.370733	en4 sil	-0.04061663
-2.043506	en4 t	-0.447776
-1.292678	en4 uu	-0.7981305
-2.542346	en4 vv	-0.1248684
-1.425841	en4 x	-0.6660755
-1.781229	en4 z	-0.4698479
-1.156603	en4 zh	-0.9053326
-1.357436	en5 </s>
-2.679655	en5 aa
-1.482374	en5 b	-0.6758928
-2.327472	en5 c	-0.04467931
-2.240322	en5 ch	-0.1003866
-0.8978996	en5 d	-0.7365856
-2.378625	en5 ee	-0.1327001
-2.167772	en5 f	-0.2579952
-1.337232	en5 g	-0.6179094
-1.600474	en5 h	-0.5494913
-1.167772	en5 ii	-0.326129
-1.221017	en5 j	-0.2687599
-1.582745	en5 k	-0.4041401
-1.518287	en5 l	-0.2877145
-1.919987	en5 m	-0.4460969
-1.273115	en5 n	-0.3658103
-2.559812	en5 p	-0.3496061
-2.167772	en5 q	-0.1361917
-1.919987	en5 r	-0.4787814
-2.378625	en5 s	-0.1296811
-1.102738	en5 sh	-0.51764
-1.638262	en5 sil	0.01970369
-1.980685	en5 t	-0.09502178
-2.105624	en5 uu	-0.08624017
-2.484341	en5 vv
-1.352296	en5 x	-0.3966551
-1.424382	en5 z	-0.3681257
-0.6564025	en5 zh	-1.005342
-1.225898	eng1 </s>
-2.521465	eng1 aa	0.0640893
-1.761797	eng1 b	-0.3005073
-2.220435	eng1 c	-0.617569
-1.237034	eng1 ch	-0.8805506
-1.159737	eng1 d	-0.2065379
-2.220435	eng1 ee	1.871586e-05
-1.822495	eng1 f	-0.8170897
-1.415955	eng1 g	-0.7913597
-0.7951454	eng1 h	-1.288808
-1.391131	eng1 ii	-0.6617202
-0.9651625	eng1 j	-0.9353998
-1.977397	eng1 k	-0.4326085
-1.220435	eng1 l	-0.667923
-1.761797	eng1 m	-0.8908244
-1.480072	eng1 n	0.1292224
-2.521465	eng1 p
-1.592046	eng1 q	-0.3709573
-2.009582	eng1 r	-0.4663705
-2.521465	eng1 s
-1.500276	eng1 sh	-0.2519279
-2.220435	eng1 sil	-0.09291139
-1.947434	eng1 t	-0.2375734
-1.555323	eng1 uu	-0.542851
-2.220435	eng1 vv	-0.8148559
-0.9836459	eng1 x	-1.049645
-2.009582	eng1 z	0.02022693
-1.23143	eng1 zh	-0.5737098
-1.296962	eng2 </s>
-2.523746	eng2 aa	-0.2131379
-0.9814547	eng2 b	-0.7159752
-2.414602	eng2 c	-0.1174288
-1.745595	eng2 ch	-0.4383575
-1.123332	eng2 d	-0.304374
-2.766784	eng2 ee	-0.121967
-1.735376	eng2 f	-0.3402725
-1.106393	eng2 g	-0.8167897
-1.434346	eng2 h	-0.7428377
-1.125806	eng2 ii	-0.5522668
-1.178513	eng2 j	-0.4693778
-1.696747	eng2 k	-0.5504261
-1.343539	eng2 l	-0.4632639
-1.863695	eng2 m	-0.2686117
-1.395717	eng2 n	-0.391349
-2.766784	eng2 p
-1.766785	eng2 q	-0.6396801
-1.953871	eng2 r	-0.5282887
-2.414602	eng2 s	-0.2211763
-1.052874	eng2 sh	-0.6499777
-1.824776	eng2 sil	0.09898281
-1.382073	eng2 t	-0.7584254
-1.455031	eng2 uu	-0.2470848
-2.138396	eng2 vv	-0.5311532
-1.424362	eng2 x	-0.3307607
-1.576453	eng2 z	-0.3379797
-1.195658	eng2 zh	-0.5943254
-0.988189	eng3 </s>
-1.86061	eng3 aa	-0.1369629
-1.55958	eng3 b	-0.5374722
-1.902003	eng3 ch	-0.3906705
-0.8808136	eng3 d	-0.7576678
-1.822822	eng3 ee	-0.3570226
-2.056905	eng3 f	-0.1655378
-1.3457	eng3 g	-0.7736666
-1.671554	eng3 h	-0.2539382
-0.768464	eng3 ii	-1.103624
-1.579784	eng3 j	-0.7421312
-2.1801	eng3 k	-0.1573806
-1.278754	eng3 l	-0.6196337
-1.902003	eng3 m	-0.1483291
-1.004376	eng3 n	-0.7718555
-2.056905	eng3 q	-0.2442413
-2.424882	eng3 r	-0.1279149
-2.1801	eng3 s	-0.374586
-1.671554	eng3 sh	-0.2016899
-2.1801	eng3 sil	-0.1373982
-1.78806	eng3 t	-0.1624699
-1.116673	eng3 uu	-0.6117737
-1.322219	eng3 vv	-1.518321
-1.579784	eng3 x	-0.303365
-1.998913	eng3 z	0.001906484
-1.521792	eng3 zh	-0.3669685
-1.723993	eng4 </s>
-2.885361	eng4 aa
-1.80618	eng4 b	-0.2329497
-1.40824	eng4 c	-1.276324
-1.019074	eng4 ch	-1.791943
-1.323068	eng4 d	-0.2372785
-2.0103	eng4 ee	-0.4206586
-1.072448	eng4 f	-1.29043
-1.739233	eng4 g	-0.1773245
-1.186391	eng4 h	-0.6352454
-1.50515	eng4 ii	-0.3089617
-1.251893	eng4 j	-0.361485
-2.232149	eng4 k	-0.3147687
-1.654912	eng4 l	-0.244589
-1.514293	eng4 m	-0.6661006
-1.788451	eng4 n	-0.2664405
-2.584331	eng4 p
-1.31133	eng4 q	-0.8155347
-2.283301	eng4 r	-0.1753734
-1.195165	eng4 s	-1.37408
-1.487421	eng4 sh	-0.3409909
-2.341293	eng4 sil	-0.05306312
-2.072448	eng4 t	-0.332765
-1.739233	eng4 uu	-0.6383151
-1.618189	eng4 vv	-0.7642989
-1.262112	eng4 x	-1.009355
-1.144999	eng4 z	-0.907799
-0.9715474	eng4 zh	-0.7285715
-0.6488532	eng5 </s>
-2.297213	eng5 aa	0.0640893
-1.598243	eng5 b	-0.3689227
-2.598243	eng5 ch
-1.78533	eng5 d	-0.2113274
-1.996183	eng5 ee	-0.3980085
-2.101899	eng5 f	-0.705685
-1.668824	eng5 g	-0.6367849
-1.644001	eng5 h	-0.5739742
-1.85788	eng5 ii	-0.293242
-1.297213	eng5 j	-0.6797755
-2.297213	eng5 k	-0.1181155
-2.422152	eng5 l
-1.436875	eng5 m	-0.5639857
-0.6392018	eng5 n	-1.266839
-1.073198	eng5 q	-1.463994
-1.85788	eng5 r	-0.7738651
-1.577054	eng5 sh	-0.7204041
-1.4843	eng5 sil	-0.5581988
-1.820092	eng5 t	-1.037065
-1.218032	eng5 uu	-0.8408618
-1.820092	eng5 x	-0.1626121
-1.367794	eng5 z	-0.7306079
-1.4843	eng5 zh	-0.6508559
-0.9294189	er2 </s>
-1.883661	er2 aa	-0.3992485
-1.303878	er2 b	-0.4662818
-2.339593	er2 c	-0.1088117
-1.980571	er2 ch	-0.3174293
-0.9751764	er2 d	-0.3147877
-2.070748	er2 ee	-0.1709023
-1.80448	er2 f	-0.2837688
-1.653213	er2 g	-0.3442188
-1.50345	er2 h	-0.03405118
-1.131613	er2 ii	-0.1586683
-1.352183	er2 j	-0.5489386
-1.842269	er2 k	0.1812532
-1.460416	er2 l	-0.3732366
-1.593627	er2 m	-0.61739
-1.080888	er2 n	-0.4563468
-2.883662	er2 oo	0.5171213
-2.70757	er2 p
-1.206968	er2 q	-0.6145338
-1.905938	er2 r	-0.1668118
-2.0086	er2 s	-0.2100414
-1.06084	er2 sh	-0.456136
-1.413839	er2 sil	-0.3960242
-1.883661	er2 t	-0.1603565
-1.3923	er2 uu	-0.2455227
-2.883662	er2 vv
-1.653213	er2 x	-0.174115
-1.69333	er2 z	-0.2753627
-1.468688	er2 zh	-0.1979379
-1.033972	er3 </s>
-1.755875	er3 aa
-1.454845	er3 b
-0.4548449	er3 d	-0.1197581
-1.454845	er3 ee	-0.3239831
-1.755875	er3 f
-1.033972	er3 ii	-0.1228494
-1.755875	er3 j
-1.454845	er3 l	-0.568023
-1.153815	er3 m	-0.3565052
-1.278754	er3 n	-0.5770674
-1.755875	er3 oo
-1.755875	er3 q
-1.454845	er3 r	-0.5578391
-1.755875	er3 sh
-1.755875	er3 uu
-1.278754	er3 x
-1.755875	er3 z
-1.230781	er4 </s>
-3.117271	er4 aa
-1.117271	er4 b	-1.354283
-2.515211	er4 c	-0.2855274
-2.515211	er4 ch	-0.1326803
-1.62591	er4 d	-0.386181
-1.297727	er4 ee	-0.5920801
-2.075879	er4 f	-0.4521993
-1.685907	er4 g	-1.067244
-1.612121	er4 h	-0.9876444
-1.311091	er4 ii	-0.7212743
-1.774849	er4 j	-0.5549932
-2.075879	er4 k	-0.9364696
-1.056574	er4 l	-1.388711
-2.117271	er4 m	-0.4960836
-1.816241	er4 n	-0.5816225
-2.816241	er4 oo	0.5171213
-1.560969	er4 q	-1.513921
-2.64015	er4 r	-0.519609
-1.198193	er4 s	-1.727006
-0.4640588	er4 sh	-2.280814
-1.94118	er4 sil	0.08307967
-2.214181	er4 t	-0.4468791
-1.494022	er4 uu	-0.9825667
-1.392995	er4 vv	-1.389964
-2.272173	er4 x	-0.4802405
-2.816241	er4 z
-2.003328	er4 zh	-0.5199659
-0.9890046	er5 </s>
-1.290035	er5 b	-0.5265003
-1.591065	er5 ch
-1.113943	er5 d	-0.06337172
-1.591065	er5 ee
-1.591065	er5 f
-1.591065	er5 g
-1.113943	er5 h
-0.7936903	er5 ii	-0.4223584
-1.113943	er5 j
-1.290035	er5 l	-0.4399596
-1.113943	er5 m
-1.591065	er5 s
-1.591065	er5 t
-0.8691618	er5 x	-0.1096538
-1.591065	er5 z
-0.9853958	f a1	-1.25787
-2.549667	f a2	-0.3277211
-1.366397	f a3	-0.4690018
-1.48272	f a4	-0.2203604
-3.628849	f a5	-0.5600236
-2.888486	f an1	-0.1771557
-2.267121	f an2	-0.4752474
-1.368777	f an3	-0.9377111
-1.872974	f an4	-0.2906681
-1.8768	f an5	-0.4132356
-1.035563	f ang1	-0.998551
-2.130538	f ang2	-0.3407638
-1.566267	f ang3	-0.7058405
-1.774542	f ang4	-0.8259003
-2.929878	f ang5	-0.1979067
-1.438517	f ei1	0.06026149
-3.207976	f ei2
-0.8243684	f ei4	0.0733285
-0.9453512	f en1	-0.2929877
-3.327819	f en2
-3.628849	f en3
-1.261493	f en4	-0.5182655
-1.872974	f en5	-0.1859742
-1.929878	f eng1	-0.5358158
-3.207976	f eng2	-0.1333633
-3.026788	f eng4	-0.2376736
-3.327819	f o2	-0.1817029
-1.684366	f ou3	0.2268876
-3.207976	f u1	-0.1364633
-0.9576757	f u2	-1.373223
-1.812607	f u3	-0.4978163
-1.190306	f u4	-0.13434
-2.628849	f u5	-0.1649837
-4.264487	g a1
-4.264487	g a2
-4.264487	g a4
-1.87179	g ai1	-0.2194707
-3.542584	g ai2	-0.7465522
-1.781614	g ai3	-0.8094342
-2.100134	g ai4	-0.2311926
-2.684704	g an1	-0.4083566
-3.542584	g an2	-0.5017049
-1.641238	g an3	-1.215275
-2.103119	g an4	-0.8916905
-1.794665	g ang1	-0.690331
-2.438412	g ang3	0.1922947
-3.787366	g ang4
-1.556917	g ao1	0.2884741
-3.150544	g ao2	-1.058183
-2.720419	g ao3	-0.2271006
-2.054972	g ao4	-0.3892283
-4.264487	g ao5
-2.268852	g e1	-0.3209666
-1.916182	g e2	-0.4175323
-3.787366	g e3	-0.2871268
-0.8689861	g e4	-0.1759989
-0.5583671	g e5	0.1358869
-3.060367	g ei2	-1.244415
-2.425638	g ei3	-0.5873415
-1.591466	g en1	-0.5046492
-2.401164	g eng1	-0.4607866
-3.542584	g eng3	-0.513454
-2.223094	g eng4	-0.6232907
-1.075559	g ong1	-0.05894923
-3.150544	g ong3	-0.8286576
-1.643311	g ong4	-0.1339948
-2.849514	g ou1	-0.9920356
-4.264487	g ou2
-3.034038	g ou3	-0.4000951
-1.842883	g ou4	0.4747796
-3.787366	g ou5
-2.759337	g u1	-0.6387404
-3.787366	g u2	-0.1941196
-2.419389	g u3	-0.5417855
-2.181702	g u4	-0.6107321
-3.662427	g u5
-3.310245	g ua1	-0.1357262
-3.963457	g ua3
-2.465147	g ua4	-0.5259798
-3.963457	g uai3	-0.3471718
-3.542584	g uai4
-1.395843	g uan1	0.09526289
-2.181702	g uan2	-1.532706
-2.109151	g uan3	-0.6660411
-2.621035	g uan4	-0.3462878
-2.631019	g uang1	0.03837207
-3.787366	g uang2	-0.2832043
-2.150544	g uang3	-0.9473263
-2.106125	g ui1	-0.6225197
-3.542584	g ui3
-2.200029	g ui4	-0.5315147
-4.264487	g un2
-3.542584	g un3	-0.5667273
-3.223094	g uo1	-0.3460613
-1.157277	g uo2	0.1009555
-1.538576	g uo3	0.7439089
-1.124923	g uo4	-0.6600043
-2.540211	g uo5	0.2284639
-2.261519	h a1	-0.5243144
-4.27012	h a4
-3.66806	h ai1	-0.1885292
-1.10666	h ai2	-1.932786
-2.099858	h ai3	-0.8044092
-3.014847	h ai4	-0.3535075
-4.27012	h an1
-2.372493	h an2	-0.7011765
-4.27012	h an3
-2.778758	h an4	-0.3533749
-4.27012	h an5
-1.832369	h ang2	-0.4476027
-2.027081	h ao2	-1.332441
-0.9596387	h ao3	0.765702
-0.8226514	h ao4	0.1266773
-2.57115	h e1	-0.6728441
-1.305389	h e2	0.04435611
-2.598022	h e4	-0.363454
-3.123991	h ei1	-0.1769837
-2.372493	h en2	-0.8832253
-1.672424	h en3	-0.6814618
-4.27012	h en4
-2.927697	h eng1	-0.6181784
-3.315877	h eng2	-0.1189992
-3.96909	h eng4	-0.5552322
-3.228727	h eng5	-0.09340662
-3.96909	h ong1
-2.278893	h ong2	-0.3456737
-4.27012	h ong4
-3.315877	h ou2	-0.1742183
-4.27012	h ou3
-1.025595	h ou4	0.04084492
-1.671329	h ou5	0.5886787
-2.378025	h u1	-0.5942634
-2.607362	h u2	-0.512917
-2.96909	h u3	-0.2624245
-1.533723	h u4	0.3302923
-3.548217	h u5
-2.236696	h ua1	-0.4408407
-2.149546	h ua2	0.2933663
-0.8263873	h ua4	0.1893761
-4.27012	h ua5
-3.123991	h uai2	0.1182018
-3.039671	h uai4	-0.3085568
-2.66806	h uan1	-0.3920975
-1.515771	h uan2	-0.307672
-3.792998	h uan3
-1.984562	h uan4	-0.2280665
-3.548217	h uang1
-2.395058	h uang2	-0.08844239
-2.356306	h ui1	-0.09129882
-1.733561	h ui2	-0.2410862
-3.472745	h ui3	-0.116732
-1.310125	h ui4	-0.3514236
-3.36703	h un1	-0.2658517
-3.425022	h un2	-0.198824
-4.27012	h un4
-1.69148	h uo2	-0.8727182
-2.855146	h uo3	-0.3929494
-1.163929	h uo4	0.08872724
-1.177012	i1 </s>
-2.351723	i1 aa	-1.000736
-1.131117	i1 b	-0.7289263
-1.524723	i1 c	-1.103868
-1.652753	i1 ch	-0.8066382
-1.151498	i1 d	-0.5402026
-1.861029	i1 ee	-1.172807
-1.446055	i1 f	-0.6229398
-1.594761	i1 g	-0.7150744
-1.156746	i1 h	-0.6451074
-1.319834	i1 ii	-0.5186089
-1.172883	i1 j	-0.4592381
-1.754864	i1 k	-0.3486201
-1.306586	i1 l	-0.6707875
-1.598395	i1 m	-0.8245358
-1.584037	i1 n	-0.1964864
-2.828844	i1 oo	-0.3770632
-2.395188	i1 p	-0.2094895
-1.925754	i1 q	-0.3274057
-2.226784	i1 r	-0.3100441
-1.925754	i1 s	-0.7938968
-1.019765	i1 sh	-0.7736199
-1.776315	i1 sil	-0.02214479
-1.636515	i1 t	-0.7265094
-1.443493	i1 uu	-0.2615147
-1.416263	i1 vv	-0.7733141
-1.566732	i1 x	-0.4880137
-1.835093	i1 z	-0.1850151
-1.170151	i1 zh	-0.7335156
-1.58855	i2 </s>
-2.915341	i2 aa	-0.07670245
-1.609512	i2 b	-0.8777282
-2.077192	i2 c	-0.482417
-2.063404	i2 ch	-0.7816352
-1.171483	i2 d	-0.7821887
-2.966494	i2 ee	-0.2093525
-2.59083	i2 f	-0.3051902
-0.6460878	i2 g	-1.621676
-1.071624	i2 h	-1.314609
-1.665464	i2 ii	-0.2524199
-1.729705	i2 j	-0.3766283
-1.65474	i2 k	-1.320539
-1.935085	i2 l	-0.3578765
-1.783224	i2 m	-0.5542979
-2.018325	i2 n	-0.469203
-2.392462	i2 p	-0.5346288
-1.905796	i2 q	-0.5810839
-2.507856	i2 r	-0.246199
-3.147681	i2 s	-0.1881463
-1.376823	i2 sh	-1.124812
-2.614311	i2 sil	-0.1608426
-1.16372	i2 t	-1.223402
-1.776162	i2 uu	-0.8034737
-2.527161	i2 vv	-0.9058279
-0.5689882	i2 x	-1.741149
-2.422426	i2 z	-0.07205686
-1.639135	i2 zh	-0.4993948
-1.399285	i3 </s>
-2.105534	i3 aa	-0.03829312
-1.267484	i3 b	-0.8196785
-2.257823	i3 c	-0.104241
-1.9154	i3 ch	-0.5802358
-1.151972	i3 d	-0.4677531
-2.284695	i3 ee	0.7331042
-1.591305	i3 f	-0.8297653
-1.489925	i3 g	-0.7767982
-1.379301	i3 h	-0.7207884
-1.181546	i3 ii	-0.5972949
-0.9915908	i3 j	-0.6999433
-1.63251	i3 k	-0.7244017
-1.38625	i3 l	-0.6760865
-1.281014	i3 m	-0.7265165
-0.9083507	i3 n	-0.8325765
-3.479671	i3 oo	0.4742242
-2.070302	i3 p	-0.7461355
-1.813778	i3 q	-0.4850102
-1.736684	i3 r	-0.7604683
-2.249222	i3 s	-0.04620755
-1.181546	i3 sh	-0.9924352
-1.79244	i3 sil	-0.01597333
-1.653597	i3 t	-0.4132265
-1.345069	i3 uu	-0.9420632
-2.438279	i3 vv	-0.2986364
-1.505006	i3 x	-0.499424
-1.626379	i3 z	-0.2729748
-1.387419	i3 zh	-0.599498
-1.003666	i4 </s>
-2.407984	i4 aa	0.02124119
-1.280081	i4 b	-0.2503364
-2.555304	i4 c	-0.2214069
-1.747561	i4 ch	-0.4355944
-1.217844	i4 d	-0.3577479
-2.112945	i4 ee	-0.6444876
-1.37368	i4 f	-0.7533906
-1.512395	i4 g	-0.9862539
-1.013389	i4 h	-0.7405906
-1.247643	i4 ii	-0.6133953
-1.337314	i4 j	0.01861227
-1.880372	i4 k	-0.2133948
-1.459732	i4 l	-0.4928082
-1.45706	i4 m	-1.001862
-1.306105	i4 n	-0.5279908
-3.192126	i4 oo	0.00696063
-2.357493	i4 p	-0.1080485
-1.541333	i4 q	-0.3174148
-1.892909	i4 r	-0.5537618
-1.703105	i4 s	-0.4036225
-1.068274	i4 sh	-0.7889749
-1.926915	i4 sil	-0.003207326
-1.616169	i4 t	-0.5074615
-1.418218	i4 uu	-0.5105102
-2.028269	i4 vv	-0.2886781
-1.322405	i4 x	-0.7878247
-1.810409	i4 z	-0.2225031
-1.281857	i4 zh	-0.4780253
-0.6766936	i5 </s>
-2.136634	i5 aa	-0.3301674
-1.443564	i5 b	-0.2354633
-2.557507	i5 ch
-0.9091472	i5 d	-0.4788998
-1.817145	i5 ee	-0.4953253
-1.955447	i5 f	-0.3225365
-1.381416	i5 g	-0.6670198
-1.177296	i5 h	-0.7087324
-1.256477	i5 ii	-0.4355559
-1.516114	i5 j	-0.3685337
-1.904295	i5 k	-0.1315304
-1.817145	i5 l	-0.1639918
-1.654417	i5 m	-0.3560393
-0.9893055	i5 n	-0.9780603
-2.858537	i5 oo
-2.061163	i5 p	-0.9736211
-1.302235	i5 q	-0.86576
-2.136634	i5 r	-0.6784839
-2.136634	i5 s	-0.3601238
-1.443564	i5 sh	-0.3766494
-1.744594	i5 sil	0.1076327
-1.955447	i5 t	-0.2532007
-1.628088	i5 uu	-0.4019077
-2.557507	i5 vv	-0.3629768
-1.628088	i5 x	-0.2547426
-1.654417	i5 z	-0.2414032
-1.460597	i5 zh	-0.2770582
-1.230079	ia1 </s>
-2.591806	ia1 aa	-0.2649617
-1.361357	ia1 b	-0.4312122
-2.591806	ia1 c	-0.2065694
-1.989746	ia1 ch	-0.4498422
-0.945076	ia1 d	-0.7367986
-2.271553	ia1 ee	-0.0339061
-2.114685	ia1 f	-0.1471194
-1.466868	ia1 g	-0.5865185
-1.591806	ia1 h	-0.2250511
-1.035504	ia1 ii	-0.2286909
-1.276536	ia1 j	-0.3018233
-1.637564	ia1 k	-0.435064
-0.9583379	ia1 l	-1.014709
-2.114685	ia1 m	-0.2467044
-1.563778	ia1 n	0.04972672
-3.068928	ia1 oo
-3.068928	ia1 p
-0.9790225	ia1 q	-1.292378
-1.435459	ia1 r	-0.9373462
-2.027535	ia1 s	-0.3566819
-1.188114	ia1 sh	-0.5146847
-1.9228	ia1 sil	0.1586368
-1.256014	ia1 t	-0.8015676
-1.954984	ia1 uu	0.03715116
-1.864808	ia1 vv	-0.6239158
-1.954984	ia1 x	-0.3546246
-1.7072	ia1 z	-0.2229443
-1.378731	ia1 zh	-0.2737193
-1.591065	ia2 </s>
-1.591065	ia2 aa
-1.591065	ia2 b
-1.591065	ia2 d
-1.591065	ia2 f
-1.290035	ia2 g
-0.4771213	ia2 h	-1.113477
-1.290035	ia2 ii
-1.591065	ia2 l
-1.591065	ia2 m
-1.591065	ia2 n
-1.591065	ia2 p
-1.113943	ia2 q	-0.6006645
-0.8691618	ia2 sh	-0.3296533
-1.591065	ia2 vv
-1.591065	ia2 x
-1.591065	ia2 z
-1.591065	ia2 zh
-1.140272	ia3 </s>
-1.867271	ia3 aa	-0.1846091
-1.39015	ia3 b	-0.22384
-2.344392	ia3 c
-2.344392	ia3 ch
-0.867271	ia3 d	-0.4171021
-1.867271	ia3 ee
-1.867271	ia3 f	-0.604557
-1.622489	ia3 g	-0.2241843
-1.547018	ia3 h	-0.2207942
-1.168301	ia3 ii	-0.1875394
-1.742332	ia3 j	-0.4395456
-2.344392	ia3 k
-1.08912	ia3 l	-0.3174521
-1.622489	ia3 m	-0.03480154
-1.547018	ia3 n	-0.1241075
-2.043362	ia3 q
-1.00197	ia3 r	-1.418095
-0.9294189	ia3 sh	-0.7157203
-1.441302	ia3 sil	0.1844605
-1.622489	ia3 t	-0.1490933
-1.547018	ia3 uu	-0.3122301
-1.867271	ia3 vv	-0.08369157
-1.547018	ia3 x	-0.3700967
-2.344392	ia3 z
-1.198264	ia3 zh	-0.2059589
-0.8151047	ia4 </s>
-1.735267	ia4 aa	-0.7670659
-1.500502	ia4 b	-0.6677666
-2.380362	ia4 c	-0.7125999
-2.505301	ia4 ch	-0.1565742
-1.590312	ia4 d	-0.2928908
-1.472772	ia4 ee	-0.4814507
-1.751973	ia4 f	-0.9385002
-1.263644	ia4 g	-1.118379
-1.387661	ia4 h	-0.4012339
-1.486415	ia4 ii	-0.1164011
-1.289281	ia4 j	-0.7231765
-1.751973	ia4 k	-0.7466394
-1.446706	ia4 l	-0.7228129
-1.410325	ia4 m	-0.8554633
-0.8563989	ia4 n	-1.010089
-2.857483	ia4 oo	0.2024029
-2.459543	ia4 p	-0.3304565
-1.846759	ia4 q	-0.2741871
-1.997145	ia4 r	-0.6342385
-2.556453	ia4 s	0.01151302
-1.430159	ia4 sh	-0.4281282
-1.735267	ia4 sil	-0.417756
-1.826075	ia4 t	-0.2863115
-1.21157	ia4 uu	-1.174224
-1.760573	ia4 vv	-1.232388
-1.525045	ia4 x	-0.357261
-1.352333	ia4 z	-0.9469489
-1.338969	ia4 zh	-0.5821761
-0.3051079	ia5 </s>
-1.962437	ia5 aa	0.02356309
-1.661407	ia5 b	-0.03734726
-2.506505	ia5 ch
-1.465112	ia5 d	-0.3709493
-1.603415	ia5 ee	-0.3971345
-2.085632	ia5 f	-0.1310379
-2.506505	ia5 g
-1.376171	ia5 h	-0.4797734
-1.807535	ia5 ii	-0.2029559
-1.445807	ia5 j	-0.4415302
-2.205475	ia5 k
-2.330414	ia5 l	-0.2712365
-1.962437	ia5 m	-0.224911
-1.184286	ia5 n	-0.8631064
-2.205475	ia5 oo	0.2024029
-2.807535	ia5 p
-2.330414	ia5 q
-2.330414	ia5 r	-0.2107432
-2.205475	ia5 s	-0.3416841
-1.577086	ia5 sh	-0.2409613
-1.302385	ia5 sil	-0.2286281
-1.766142	ia5 t	-0.9281822
-1.376171	ia5 uu	-0.3931061
-2.807535	ia5 vv
-1.807535	ia5 x	-0.1891155
-2.010161	ia5 z	-0.03081656
-1.506505	ia5 zh	-0.468885
-1.306775	ian1 </s>
-2.375179	ian1 aa	-0.5362517
-1.432442	ian1 b	-0.597897
-2.14323	ian1 c	-0.5206366
-1.580322	ian1 ch	-0.6842005
-1.014564	ian1 d	-0.7297525
-1.279292	ian1 ee	-1.126682
-1.85744	ian1 f	-0.3670462
-1.708001	ian1 g	-0.6180519
-1.54493	ian1 h	-0.5050485
-1.232716	ian1 ii	-0.7716556
-1.218238	ian1 j	-0.5450612
-1.54493	ian1 k	-0.4300199
-1.67113	ian1 l	-0.3583508
-1.576244	ian1 m	-0.753545
-1.447266	ian1 n	-0.3787146
-3.128507	ian1 oo	0.4742242
-2.702538	ian1 p	-0.2356744
-1.915432	ian1 q	-0.4540491
-2.350356	ian1 r	-0.1992033
-2.025845	ian1 s	-0.5459994
-0.5638409	ian1 sh	-1.135473
-1.8422	ian1 sil	-0.06340891
-1.992844	ian1 t	-0.2591028
-1.488357	ian1 uu	-1.187894
-2.263206	ian1 vv	-0.08683461
-1.623357	ian1 x	-0.3894861
-1.64184	ian1 z	-0.2180337
-1.646587	ian1 zh	-0.3308874
-1.067214	ian2 </s>
-2.116699	ian2 aa	-0.4882474
-1.374977	ian2 b	-0.5298298
-2.432969	ian2 c	0.006451488
-2.047618	ian2 ch	-0.2623026
-0.8523701	ian2 d	-0.8777508
-2.403006	ian2 ee	-0.01073921
-1.91634	ian2 f	-0.5415476
-1.772917	ian2 g	-0.412526
-1.436082	ian2 h	-0.3780975
-1.164124	ian2 ii	-0.7971863
-1.139765	ian2 j	-0.6543737
-2.073947	ian2 k	0.004272044
-1.206185	ian2 l	-0.8574033
-1.634615	ian2 m	-0.7283027
-1.084943	ian2 n	-0.7135957
-3.278067	ian2 oo	0.5171213
-2.733999	ian2 p	-0.3104714
-1.649678	ian2 q	-0.5552046
-2.181157	ian2 r	-0.1237152
-1.766184	ian2 s	-0.3960623
-1.275901	ian2 sh	-0.7310167
-1.715774	ian2 sil	-0.06412691
-1.475294	ian2 t	-0.7715809
-1.289063	ian2 uu	-1.154698
-2.374977	ian2 vv	-0.1558961
-1.150963	ian2 x	-1.137117
-1.815669	ian2 z	-0.4845106
-1.541671	ian2 zh	-0.3293697
-1.127318	ian3 </s>
-2.18327	ian3 aa	-0.05273101
-1.353966	ian3 b	-0.8173398
-2.132117	ian3 c	-0.3077735
-1.396164	ian3 ch	-0.6851363
-0.9496393	ian3 d	-0.7010222
-1.217128	ian3 ee	-1.027336
-0.9724165	ian3 f	-1.303678
-1.4843	ian3 g	-0.6774671
-1.506576	ian3 h	-0.6191404
-1.30103	ian3 ii	-0.1153989
-1.235101	ian3 j	-0.5505106
-2.08636	ian3 k	-0.1042575
-1.743937	ian3 l	-0.3594572
-2.044967	ian3 m	-0.3663612
-1.4843	ian3 n	-0.8763957
-2.4843	ian3 p
-1.743937	ian3 q	-0.1309191
-1.972417	ian3 r	-0.1425371
-2.08636	ian3 s	-0.1759763
-0.7941037	ian3 sh	-1.314936
-1.88224	ian3 sil	-0.01699221
-1.831087	ian3 t	-0.3644644
-2.08636	ian3 uu	-0.379327
-2.4843	ian3 vv	-0.2567078
-2.007179	ian3 x	-0.05124595
-1.76414	ian3 z	0.016505
-1.405119	ian3 zh	-0.4856918
-0.9568411	ian4 </s>
-2.155632	ian4 aa	-0.6145472
-2.028053	ian4 b	-0.2888809
-2.727023	ian4 c	-0.4709145
-2.020228	ian4 ch	-0.4897707
-1.184085	ian4 d	-0.2533424
-1.799933	ian4 ee	0.07149148
-1.727023	ian4 f	-0.73447
-1.607048	ian4 g	-0.6634781
-0.7962133	ian4 h	-1.382615
-1.446197	ian4 ii	-0.5373638
-1.569759	ian4 j	-0.3669146
-1.997564	ian4 k	-0.5364043
-1.480614	ian4 l	-0.5235977
-1.969076	ian4 m	-0.6568013
-1.256533	ian4 n	-0.6722528
-3.467386	ian4 oo	0.5171213
-2.923318	ian4 p	-0.2484258
-1.899184	ian4 q	-0.4310017
-2.277054	ian4 r	-0.2511543
-2.768416	ian4 s	-0.1027829
-1.100963	ian4 sh	-0.7347479
-2.020228	ian4 sil	0.002489448
-2.020228	ian4 t	-0.3455008
-1.828897	ian4 uu	-0.3811969
-2.467386	ian4 vv	-0.2580678
-1.46092	ian4 x	-1.021006
-0.7062103	ian4 z	-1.340701
-1.444134	ian4 zh	-0.6282244
-0.7522155	ian5 </s>
-1.812913	ian5 ch
-0.8586708	ian5 d	-0.5517877
-1.268845	ian5 ee	-0.8419518
-2.113943	ian5 f
-2.113943	ian5 g
-1.113943	ian5 h	-0.5582559
-1.159701	ian5 ii	-0.4209796
-1.210853	ian5 j	-0.2817014
-1.812913	ian5 k
-1.511883	ian5 l	-0.1952517
-1.636822	ian5 m	-0.1745114
-0.9678153	ian5 n	-0.09845254
-2.113943	ian5 r
-2.113943	ian5 s
-1.511883	ian5 sh	-0.0106291
-1.511883	ian5 sil	-0.1870742
-1.392041	ian5 t	-0.408765
-2.113943	ian5 uu
-1.511883	ian5 x	-0.1956089
-1.812913	ian5 z
-1.392041	ian5 zh	-0.3469935
-1.816241	iang1 </s>
-2.418301	iang1 aa	-0.1417119
-1.464059	iang1 b	-0.4158128
-1.997429	iang1 c	-0.5017155
-1.719331	iang1 ch	-0.2742426
-0.9634565	iang1 d	-0.6695347
-1.997429	iang1 ee	-0.5124386
-1.719331	iang1 f	-0.251991
-0.7370601	iang1 g	-1.165057
-1.075879	iang1 h	-0.5615015
-1.175263	iang1 ii	-0.3063162
-1.272173	iang1 j	-0.2777348
-2.418301	iang1 k	-0.5191568
-1.357603	iang1 l	-0.3963895
-1.719331	iang1 m	-0.07854758
-1.921957	iang1 n	-0.1716499
-2.719331	iang1 p
-2.24221	iang1 q	-0.278482
-2.418301	iang1 r	-0.4072002
-1.719331	iang1 s	-1.191408
-1.54324	iang1 sh	-0.1210161
-2.719331	iang1 sil
-1.874233	iang1 t	-0.1739585
-2.117271	iang1 uu
-2.418301	iang1 vv	-0.5350994
-1.24221	iang1 x	-0.692833
-1.085863	iang1 z	-1.152463
-1.056574	iang1 zh	-0.7419087
-1.233958	iang2 </s>
-2.395326	iang2 aa
-0.9110265	iang2 b	-1.003661
-1.793266	iang2 ch	-0.2859763
-0.7618579	iang2 d	-0.6546967
-1.898982	iang2 f	-0.3528485
-1.353934	iang2 g	-0.4262426
-1.024258	iang2 h	-0.7726806
-1.654964	iang2 ii	-1.136644
-1.298416	iang2 j	-0.2592746
-1.191206	iang2 l	-0.3623065
-1.617175	iang2 m	-0.3757996
-2.219235	iang2 n
-2.395326	iang2 p
-1.582413	iang2 q	-0.4713439
-2.395326	iang2 r
-2.219235	iang2 s	-0.5533555
-1.233958	iang2 sh	-0.3269018
-2.094296	iang2 t	-0.16454
-1.851258	iang2 uu	-0.3638921
-2.395326	iang2 vv	-0.5350994
-1.033599	iang2 x	-0.5774668
-2.094296	iang2 z
-1.094296	iang2 zh	-0.1996667
-1.053314	iang3 </s>
-2.04454	iang3 aa	-0.07197469
-1.407718	iang3 b	-0.560357
-1.919601	iang3 c	-0.9223081
-1.689152	iang3 ch	-0.8105857
-1.271241	iang3 d	-0.4705051
-2.317541	iang3 ee	0.1819868
-1.689152	iang3 f	-0.6078517
-0.8140908	iang3 g	-0.9422528
-1.317541	iang3 h	-0.6915045
-1.513061	iang3 ii	-0.4590768
-1.513061	iang3 j	-0.06776452
-1.428239	iang3 k	-0.7839819
-1.676563	iang3 l	-0.2754064
-1.513061	iang3 m	-0.7512664
-1.242907	iang3 n	-0.7756196
-2.919601	iang3 oo	0.5171213
-2.74351	iang3 p	-0.1230092
-1.328536	iang3 q	-0.5602757
-2.106688	iang3 r	-0.6107278
-1.84042	iang3 s	-1.241732
-1.548533	iang3 sh	-0.4852536
-1.965358	iang3 sil	0.009236306
-1.286133	iang3 t	-0.927448
-0.9901821	iang3 uu	-1.344835
-2.423257	iang3 vv	-0.09956224
-1.822691	iang3 x	-0.30624
-1.773473	iang3 z	-0.1241959
-1.381782	iang3 zh	-0.3084644
-0.9861317	iang4 </s>
-2.104231	iang4 aa	-0.8031404
-1.060378	iang4 b	-0.7978653
-2.463253	iang4 c	-0.1212689
-1.776872	iang4 ch	-0.2557936
-0.7667717	iang4 d	-0.7477446
-1.845953	iang4 ee	-0.7127158
-1.740149	iang4 f	-0.5032539
-1.609381	iang4 g	-0.6307696
-1.592348	iang4 h	-0.4178148
-1.178017	iang4 ii	-0.1352252
-1.317125	iang4 j	-0.4115929
-1.876987	iang4 k	-0.4052263
-1.876987	iang4 l	-0.1416151
-1.560163	iang4 m	-0.8325287
-1.115226	iang4 n	-0.8592888
-3.007321	iang4 oo	0.5171213
-2.053078	iang4 p	-0.5337721
-1.861193	iang4 q	-0.06615138
-2.266958	iang4 r	0.0617744
-2.162223	iang4 s	-0.2323142
-1.146983	iang4 sh	-0.3513337
-1.946623	iang4 sil	-0.1012979
-1.495438	iang4 t	-0.5915916
-1.451018	iang4 uu	-0.2158213
-3.308351	iang4 vv
-1.740149	iang4 x	-0.06009901
-1.451018	iang4 z	-0.320069
-1.373852	iang4 zh	-0.3875128
-0.7403627	iang5 </s>
-1.342423	iang5 b
-1.041393	iang5 ch	-0.5591187
-0.6205199	iang5 d	-0.5311124
-0.8653014	iang5 ii
-1.041393	iang5 j	-0.5246841
-1.342423	iang5 n
-1.342423	iang5 t
-1.342423	iang5 uu
-1.342423	iang5 x
-1.198324	iao1 </s>
-2.318898	iao1 aa	0.09117228
-1.310297	iao1 b	-0.8911034
-2.841776	iao1 c	-0.2065694
-1.903924	iao1 ch	-0.5738307
-1.215094	iao1 d	-0.809339
-1.499354	iao1 ee	-0.5188827
-1.093588	iao1 f	-1.516835
-2.017868	iao1 g	-0.4434202
-1.55547	iao1 h	-0.4343878
-1.15158	iao1 ii	-0.9753848
-1.512718	iao1 j	-1.020668
-2.521523	iao1 k	-0.3679745
-0.7448664	iao1 l	-1.45701
-1.938686	iao1 m	-0.5009748
-1.87174	iao1 n	-0.8835297
-2.841776	iao1 oo	0.7964066
-2.4738	iao1 p	-0.6154836
-1.139921	iao1 q	-0.8619388
-2.204954	iao1 r	-0.5168734
-1.09879	iao1 s	-1.376557
-1.273575	iao1 sh	-0.7444768
-1.938686	iao1 sil	-0.02405864
-1.628702	iao1 t	-0.9768093
-1.30606	iao1 uu	-1.261437
-2.415808	iao1 vv	-0.4099128
-1.87174	iao1 x	-0.4921941
-2.318898	iao1 z	-0.1392722
-1.586504	iao1 zh	-0.8654096
-1.148779	iao2 </s>
-1.546719	iao2 b	-0.3236683
-2.692847	iao2 c
-2.090787	iao2 ch	-0.307709
-1.049394	iao2 d	-0.7832708
-1.462398	iao2 ee	-1.314483
-1.970944	iao2 f	-0.07952531
-2.391817	iao2 g
-1.738604	iao2 h	-0.09690584
-1.578904	iao2 ii	-0.4265588
-0.4522977	iao2 j	-1.538771
-1.414093	iao2 k	-0.7189518
-1.651454	iao2 l	-0.07134186
-1.847749	iao2 m	-0.1002275
-1.738604	iao2 n	-0.2257654
-2.215726	iao2 p	-0.2878759
-1.847749	iao2 q	-0.3660814
-2.391817	iao2 r
-1.847749	iao2 s	-0.2628306
-1.350424	iao2 sh	-0.3404411
-2.391817	iao2 sil
-1.230449	iao2 t	-1.16051
-2.090787	iao2 uu	-0.3140029
-2.692847	iao2 vv
-1.391817	iao2 x	-0.366435
-2.090787	iao2 z	-0.1924333
-1.261483	iao2 zh	-0.4491389
-1.388533	iao3 </s>
-2.233631	iao3 aa	0.0640893
-1.794298	iao3 b	-0.1980899
-2.534661	iao3 c
-1.990592	iao3 ch	-0.09884177
-1.050361	iao3 d	-0.3973202
-2.233631	iao3 ee	-0.4516075
-1.317177	iao3 f	-0.8459539
-1.990592	iao3 g	-0.06776617
-1.388533	iao3 h	-0.4750333
-1.455479	iao3 ii	-0.5004178
-1.794298	iao3 j	-0.2118352
-1.990592	iao3 k	0.003297418
-1.233631	iao3 l	-0.6335062
-1.534661	iao3 m	-0.1895893
-1.493268	iao3 n	-0.2700974
-1.279388	iao3 p	-0.8308399
-1.304212	iao3 q	-0.621435
-2.358569	iao3 r
-2.038316	iao3 s	0.03506725
-0.5412244	iao3 sh	-1.069209
-1.932601	iao3 sil	0.03980747
-1.990592	iao3 t	-0.2094576
-1.605242	iao3 uu	-0.6999378
-2.358569	iao3 vv
-1.172933	iao3 x	-0.8763471
-2.038316	iao3 z	0.1044738
-1.756509	iao3 zh	-0.05742958
-1.182199	iao4 </s>
-2.052783	iao4 aa	-0.4564095
-1.149693	iao4 b	-0.5922173
-2.291665	iao4 c	-0.1210311
-1.357166	iao4 ch	-0.495207
-0.9848825	iao4 d	-0.481284
-2.467756	iao4 ee	0.0479871
-1.814543	iao4 f	-0.1118814
-1.395874	iao4 g	-0.6588198
-1.675364	iao4 h	-0.2149726
-1.214903	iao4 ii	-0.5877765
-1.17329	iao4 j	-0.2173434
-1.668416	iao4 k	-0.4731075
-1.381396	iao4 l	-0.2794905
-1.598524	iao4 m	-0.4161526
-1.513514	iao4 n	-0.00659585
-2.237307	iao4 p	-0.1993268
-1.508715	iao4 q	-0.5860347
-2.052783	iao4 r	-0.3965088
-2.237307	iao4 s	-0.01068953
-0.9479281	iao4 sh	-0.7672024
-1.804998	iao4 sil	-0.0362218
-1.610424	iao4 t	-0.1298782
-1.648212	iao4 uu	-0.38682
-1.503968	iao4 vv	-1.094655
-1.641681	iao4 x	-0.1574169
-1.309394	iao4 z	-0.6627573
-1.350485	iao4 zh	-0.348104
-0.39794	iao5 ii	-0.5444065
-0.39794	iao5 l	-0.4399596
-1.2906	ie1 </s>
-2.760422	ie1 aa	-0.1417119
-1.222603	ie1 b	-0.4305944
-2.158362	ie1 c	-0.1656804
-1.584331	ie1 ch	-0.2545613
-0.7073441	ie1 d	-0.7951576
-2.33955	ie1 ee	0.03595415
-1.699725	ie1 f	-0.3997996
-1.2906	ie1 g	-0.4204544
-1.760422	ie1 h	-0.1248328
-1.235378	ie1 ii	-0.4963772
-1.235378	ie1 j	-0.4826275
-1.831004	ie1 k	-0.1210741
-1.418	ie1 l	-0.3760888
-1.80618	ie1 m	-0.2923936
-1.459392	ie1 n	-0.2801724
-2.33955	ie1 p	-0.4665457
-1.760422	ie1 q	-0.05732232
-1.663512	ie1 r	-0.3407523
-2.264078	ie1 s	-0.371985
-0.9408786	ie1 sh	-0.4722871
-1.739233	ie1 sil	0.0755938
-1.228944	ie1 t	-0.8791352
-1.542939	ie1 uu	-0.2449395
-2.760422	ie1 vv	-0.462509
-1.529974	ie1 x	-0.3805713
-1.915324	ie1 z	-0.1200471
-1.493251	ie1 zh	-0.2696072
-1.480582	ie2 </s>
-2.401401	ie2 aa	0.1375734
-1.764578	ie2 b	-0.3259681
-2.401401	ie2 c
-1.878522	ie2 ch	-0.01147652
-0.8293038	ie2 d	-1.152734
-2.081147	ie2 f	-0.1771082
-0.964708	ie2 g	-1.207767
-1.100371	ie2 h	-0.6628278
-0.9808947	ie2 ii	-0.5729547
-1.170952	ie2 j	-0.4123802
-1.245053	ie2 k	-1.121678
-1.70243	ie2 l	-0.08878642
-2.081147	ie2 m	-0.1657367
-1.764578	ie2 n	-0.02839632
-2.878522	ie2 oo
-2.276462	ie2 q	-0.3484231
-1.162519	ie2 r	-1.314512
-1.70243	ie2 s	-0.8587118
-0.9808947	ie2 sh	-0.6465963
-1.924279	ie2 sil	0.1824878
-1.70243	ie2 t	-0.4008858
-2.081147	ie2 uu	-0.2817993
-2.878522	ie2 vv
-1.70243	ie2 x	-0.1315073
-1.732394	ie2 z	-0.6373756
-1.516794	ie2 zh	-0.3282781
-1.533217	ie3 </s>
-2.57461	ie3 aa	0.0640893
-0.8911126	ie3 b	-0.8622029
-2.27358	ie3 c	-0.134796
-1.87564	ie3 ch	-0.09721343
-1.313347	ie3 d	-0.2238182
-2.57461	ie3 ee	-0.1181819
-1.596886	ie3 f	-0.6208183
-1.796459	ie3 g	-0.244062
-1.645191	ie3 h	-0.2913367
-1.16807	ie3 ii	-0.4541382
-0.8670397	ie3 j	-1.037084
-1.147286	ie3 k	-0.9721932
-1.796459	ie3 l	-0.165925
-1.181035	ie3 m	-0.7534639
-1.513912	ie3 n	-0.2722368
-3.17667	ie3 p
-1.97255	ie3 q	-0.4124136
-2.379296	ie3 r	-0.02883236
-2.062726	ie3 s	-0.4623007
-0.800093	ie3 sh	-0.8204051
-1.699549	ie3 sil	-0.1270718
-1.77873	ie3 t	-0.08814725
-1.685308	ie3 uu	-0.4984974
-2.454767	ie3 vv	-0.5306047
-1.543201	ie3 x	-0.525365
-1.685308	ie3 z	-0.1764949
-1.596886	ie3 zh	-0.4244231
-1.324822	ie4 </s>
-2.735599	ie4 aa	-0.1810765
-1.832509	ie4 b	-0.6481544
-2.383416	ie4 c	-0.1844206
-2.191531	ie4 ch	-0.1058056
-1.084806	ie4 d	-0.6511995
-2.383416	ie4 ee	-0.161514
-1.939719	ie4 f	-0.554657
-1.423845	ie4 g	-0.5640982
-1.581784	ie4 h	-0.4764977
-1.445564	ie4 ii	-0.03315759
-1.456845	ie4 j	-0.413351
-2.10721	ie4 k	-0.2945786
-1.217085	ie4 l	-0.7407782
-1.819145	ie4 m	-0.6625273
-1.104663	ie4 n	-0.7660128
-2.337659	ie4 p	-0.3367692
-2.058905	ie4 q	-0.4330449
-2.434569	ie4 r	-0.1730243
-2.191531	ie4 s	-0.391799
-1.237288	ie4 sh	-0.945056
-2.191531	ie4 sil	0.02039301
-1.133539	ie4 t	-1.398671
-0.8491082	ie4 uu	-0.7565643
-2.735599	ie4 vv	-0.1633869
-0.7164826	ie4 x	-1.27003
-1.975931	ie4 z	0.00404197
-1.638689	ie4 zh	-0.342498
-0.7910115	ie5 </s>
-0.7130185	ie5 aa	-1.134984
-1.576341	ie5 b	-0.9574798
-1.622099	ie5 ee	-0.2589737
-2.275311	ie5 g
-1.622099	ie5 h	-0.3679529
-2.576341	ie5 ii
-2.275311	ie5 j	-0.4694961
-1.731243	ie5 l	-0.1589104
-2.275311	ie5 m	-0.4957193
-0.4149733	ie5 n	-1.270747
-2.09922	ie5 oo	0.4742242
-2.576341	ie5 p
-2.275311	ie5 q	-0.5079699
-2.576341	ie5 sh
-1.275311	ie5 sil	-0.5035309
-2.576341	ie5 vv
-1.49716	ie5 x	-0.7603872
-1.49716	ie5 z	-0.8883285
-2.09922	ie5 zh
-1.258852	ii i1	-0.4688592
-0.812067	ii i2	-0.6200881
-1.060978	ii i3	-1.172192
-0.995215	ii i4	-0.7930825
-2.438438	ii i5	-0.2004373
-2.971676	ii ia1	-0.6465777
-3.133044	ii ia2	-0.2830689
-3.530984	ii ia3	-0.2284371
-3.072346	ii ia4	-0.2123209
-1.661752	ii ia5	0.04304862
-2.685886	ii ian1	-0.2625012
-2.091651	ii ian2	-0.4496529
-2.971676	ii ian3	-0.2412885
-2.365888	ii ian4	-0.6394069
-2.570751	ii iang1	-0.2568059
-2.465591	ii iang2	0.3246843
-2.208764	ii iang3	-0.1429184
-1.696086	ii iang4	1.117883
-1.438877	ii iao1	-0.9708753
-3.354892	ii iao2	-0.1302271
-4.434073	ii iao3
-1.169965	ii iao4	0.356519
-4.434073	ii ie1
-2.71807	ii ie2	-1.47196
-1.431908	ii ie3	-0.07665634
-1.364036	ii ie4	0.9737182
-3.530984	ii ie5	0.1460373
-1.613216	ii in1	-0.4184242
-2.171623	ii in2	-0.9900665
-2.470286	ii in3	-0.4929394
-2.843009	ii in4	-0.3630864
-2.068586	ii ing1	-1.25469
-1.930283	ii ing2	-0.6513295
-3.257982	ii ing3	-0.2862377
-2.243742	ii ing4	-0.6283886
-4.133044	ii ing5
-3.257982	ii iong1	-0.2799351
-3.434074	ii iong2	-0.8538719
-3.229954	ii iong3	0.03712383
-1.217116	ii iong4	0.03525805
-3.832014	ii iong5
-2.316802	ii iu1	-0.7027925
-1.606059	ii iu2	0.1540275
-0.7593962	ii iu3	-0.1547544
-2.107738	ii iu4	0.1354011
-2.536447	ii iu5	0.4242511
-3.636699	ii ou5	-0.06843475
-1.262814	in1 </s>
-2.586235	in1 aa	-0.08902356
-1.654925	in1 b	-0.3580856
-2.077688	in1 c	-0.7428312
-2.162009	in1 ch	-0.0570378
-0.8656576	in1 d	-0.6888366
-1.764069	in1 ee	-1.23663
-2.308137	in1 f	-0.06423165
-1.893164	in1 g	-0.05932111
-1.583861	in1 h	-0.4470792
-1.636039	in1 ii	-0.06726116
-1.358747	in1 j	-0.2362582
-1.985918	in1 k	-0.2951767
-1.405047	in1 l	-0.5117539
-1.684888	in1 m	-0.6539165
-1.444815	in1 n	-0.08082736
-2.463039	in1 p	-0.2732494
-1.438906	in1 q	-0.4986155
-1.845739	in1 r	-0.1624163
-1.728354	in1 s	-0.8205439
-1.389059	in1 sh	-0.2297122
-2.510763	in1 sil	-0.09850448
-0.9207476	in1 t	-1.19703
-0.6287095	in1 uu	-1.368662
-1.845739	in1 vv	-0.5206351
-1.751835	in1 x	-0.2572722
-1.965715	in1 z	-0.2348394
-1.695354	in1 zh	-0.2501156
-1.512942	in2 </s>
-2.483978	in2 aa	0.6259604
-1.53286	in2 b	-0.8955716
-2.419037	in2 c	-0.2968266
-1.715268	in2 ch	-0.837668
-0.9075254	in2 d	-1.070734
-2.696586	in2 ee	-0.2861623
-1.354164	in2 f	-1.462012
-1.591524	in2 g	-1.098502
-0.9693019	in2 h	-1.172963
-1.400152	in2 ii	-0.8642192
-1.234188	in2 j	-0.7273901
-1.104351	in2 k	-1.393967
-1.558699	in2 l	-0.60264
-1.892555	in2 m	-0.7601911
-1.539177	in2 n	-0.8793884
-3.97534	in2 oo
-2.312582	in2 p	-1.004033
-1.692039	in2 q	-0.7254984
-2.362556	in2 r	-0.9665749
-2.197189	in2 s	-0.457981
-0.9439314	in2 sh	-1.365642
-1.892555	in2 sil	0.1501794
-1.790648	in2 t	-0.8050146
-2.303242	in2 uu	0.01546043
-2.021097	in2 vv	-0.8208648
-1.442585	in2 x	-0.9521658
-1.311639	in2 z	-0.9075023
-1.06365	in2 zh	-0.9788401
-1.148705	in3 </s>
-2.528917	in3 aa
-1.528917	in3 b	-0.1241732
-2.227887	in3 c
-2.227887	in3 ch
-1.097553	in3 d	-0.3177425
-1.926857	in3 f	-0.149897
-1.574674	in3 g	-0.799369
-1.574674	in3 h	-0.1632692
-1.148705	in3 ii	-0.4028583
-1.250163	in3 j	-0.4126548
-1.807014	in3 k	-0.07083291
-1.206697	in3 l	-0.6287092
-1.683819	in3 m	-0.6329907
-1.449735	in3 n	-0.7261674
-0.8757042	in3 p	-1.882876
-0.8661588	in3 q	-1.373886
-1.807014	in3 r	-0.2429555
-2.528917	in3 s
-1.273644	in3 sh	-0.5224242
-2.227887	in3 sil
-1.807014	in3 t
-1.625827	in3 uu	-0.1295634
-1.926857	in3 vv	-0.3292982
-1.449735	in3 x	-0.12486
-1.926857	in3 z	-0.1376044
-1.487524	in3 zh	-0.2192774
-1.315692	in4 </s>
-2.63271	in4 aa	-0.4564303
-1.290288	in4 b	-0.8543818
-2.63271	in4 c	-0.1141421
-1.581558	in4 ch	-0.7426064
-1.185552	in4 d	-0.4318923
-2.23477	in4 ee	-0.01752782
-1.743409	in4 f	-0.8249099
-1.611521	in4 g	-0.534721
-1.408695	in4 h	-0.5152403
-1.117499	in4 ii	-0.5743614
-1.562672	in4 j	-0.8161927
-1.518767	in4 k	-0.5887338
-1.266287	in4 l	-0.6589383
-1.912551	in4 m	-0.1675569
-1.591318	in4 n	-0.06679481
-2.280528	in4 p	-0.7875165
-1.518767	in4 q	-0.7819858
-1.601302	in4 r	-0.8696492
-2.389672	in4 s	-0.06333154
-1.518767	in4 sh	-0.3631641
-2.23477	in4 sil	0.169163
-1.611521	in4 t	-0.6358858
-1.892348	in4 uu	-0.3106064
-2.280528	in4 vv	-0.299699
-0.500771	in4 x	-1.713104
-2.03065	in4 z	-0.06928468
-1.654987	in4 zh	-0.3523409
-0.30103	in5 d
-0.60206	in5 sh
-1.561525	ing1 </s>
-2.353916	ing1 aa	-0.770961
-1.32861	ing1 b	-0.7269033
-2.274735	ing1 c	-0.3532574
-0.9577169	ing1 ch	-0.9978869
-1.068359	ing1 d	-0.6071416
-2.353916	ing1 ee	-0.2588818
-1.992188	ing1 f	-0.4839077
-0.9507957	ing1 g	-1.120134
-1.349595	ing1 h	-0.5704877
-1.217196	ing1 ii	-0.3521796
-0.7741326	ing1 j	-1.085347
-1.751856	ing1 k	-0.5292341
-1.450826	ing1 l	-0.6201702
-1.700704	ing1 m	-0.7655482
-1.720448	ing1 n	0.1910163
-2.274735	ing1 p	-0.3724459
-1.473103	ing1 q	-0.9717911
-2.353916	ing1 r	-0.2561293
-2.450826	ing1 s	-0.4408107
-1.05945	ing1 sh	-0.644586
-2.177825	ing1 sil	0.1379584
-1.848766	ing1 t	-0.3148684
-1.646346	ing1 uu	-0.367157
-2.353916	ing1 vv	-0.4392229
-1.575765	ing1 x	-0.1923319
-2.098644	ing1 z	-0.08808726
-1.955976	ing1 zh	0.002665758
-1.061486	ing2 </s>
-2.027627	ing2 aa	-0.5937666
-1.25778	ing2 b	-1.03517
-2.629688	ing2 c	-0.2222445
-1.697952	ing2 ch	-0.644841
-1.097049	ing2 d	-0.5408413
-1.66248	ing2 ee	-0.2871047
-1.998982	ing2 f	-0.3266182
-1.96351	ing2 g	-0.1641521
-1.423107	ing2 h	-0.7270326
-1.023697	ing2 ii	-1.078509
-0.9980593	ing2 j	-0.5480196
-1.353017	ing2 k	-1.473812
-1.043714	ing2 l	-1.015924
-1.746801	ing2 m	-0.7180989
-1.408629	ing2 n	-0.9404746
-2.825982	ing2 oo	0.4456953
-2.309352	ing2 p	-0.4960318
-1.778986	ing2 q	-0.7071745
-2.309352	ing2 r	-0.1660878
-1.76799	ing2 s	-1.397142
-1.315054	ing2 sh	-0.8491818
-1.851536	ing2 sil	-0.01956332
-1.456236	ing2 t	-0.6640273
-1.456236	ing2 uu	-0.6933216
-2.309352	ing2 vv	-0.4625462
-1.217762	ing2 x	-0.8418759
-1.915205	ing2 z	-0.328223
-1.625757	ing2 zh	-0.368394
-1.753966	ing3 </s>
-2.121943	ing3 aa	-0.0274691
-1.900094	ing3 b	-0.6807961
-2.479221	ing3 c
-2.298034	ing3 ch	-0.2827002
-1.303497	ing3 d	-0.6486222
-2.724003	ing3 ee	-0.5225248
-2.054996	ing3 g	-0.235674
-1.858701	ing3 h	-0.3877872
-1.724003	ing3 ii	-0.2538568
-1.256641	ing3 j	-0.851168
-2.356026	ing3 k	-0.2562601
-1.900094	ing3 l	-0.1744805
-2.201124	ing3 m	-0.1404525
-0.8191069	ing3 n	-1.506504
-2.900094	ing3 p
-2.054996	ing3 q	-0.1498832
-2.356026	ing3 s	-0.1420039
-1.188287	ing3 sh	-1.00762
-2.054996	ing3 sil	-0.3395888
-1.724003	ing3 t	-0.5956728
-0.3174625	ing3 uu	-2.099045
-1.803184	ing3 vv	-1.387557
-1.970675	ing3 x	-0.2457247
-2.356026	ing3 z	0.05566876
-1.970675	ing3 zh	-0.3819817
-1.058699	ing4 </s>
-2.089434	ing4 aa	-0.7487828
-1.390464	ing4 b	-0.6958879
-2.362435	ing4 c	-0.08309156
-1.943306	ing4 ch	-0.1398615
-0.8963095	ing4 d	-0.58588
-2.420427	ing4 ee	-0.418003
-1.632057	ing4 f	-0.4161435
-1.525163	ing4 g	-0.4489753
-1.642276	ing4 h	-0.2713739
-1.186344	ing4 ii	-0.2716129
-1.466185	ing4 j	-0.1568849
-1.549522	ing4 k	-0.8681042
-1.379035	ing4 l	-0.4452869
-1.236142	ing4 m	-0.9375519
-1.390464	ing4 n	-0.301685
-2.663465	ing4 p	-0.1773299
-1.593427	ing4 q	-0.5038218
-1.986772	ing4 r	-0.6853069
-2.788404	ing4 s
-1.179165	ing4 sh	-0.4223385
-1.867585	ing4 sil	0.0786272
-1.943306	ing4 t	-0.03963095
-0.8781355	ing4 uu	-1.624902
-2.035076	ing4 vv	-0.4047914
-1.734046	ing4 x	-0.1380511
-1.622073	ing4 z	-0.1592135
-1.236142	ing4 zh	-0.4089123
-0.69897	ing5 </s>
-1.263241	ing5 aa	0.1375734
-1.01846	ing5 d	-0.2899686
-1.263241	ing5 f	-0.5645068
-0.9429884	ing5 h	-0.4549071
-1.263241	ing5 ii
-1.740363	ing5 j
-1.740363	ing5 k
-1.740363	ing5 l
-1.439333	ing5 m	-0.4537967
-0.9429884	ing5 n	-0.1597318
-1.740363	ing5 s
-1.740363	ing5 sh
-1.263241	ing5 sil
-1.740363	ing5 t
-1.138303	ing5 uu
-1.740363	ing5 vv
-1.740363	ing5 z
-1.021189	iong1 d	-0.342657
-1.322219	iong1 f
-0.6003165	iong1 h	-0.503435
-0.3679768	iong1 ii	-0.9169686
-1.322219	iong1 l
-1.322219	iong1 q
-1.322219	iong1 s
-1.243038	iong2 </s>
-1.544068	iong2 c
-0.9420081	iong2 d	-0.3264678
-1.544068	iong2 f
-1.544068	iong2 g
-0.8221653	iong2 h	-0.5510624
-1.243038	iong2 ii	-0.5688286
-1.243038	iong2 j
-1.544068	iong2 m
-1.243038	iong2 r
-1.544068	iong2 uu
-0.544068	iong2 vv	-0.9960421
-1.243038	iong2 zh
-1.255273	iong3 aa
-1.255273	iong3 b
-1.255273	iong3 d
-1.255273	iong3 g
-1.255273	iong3 h
-0.9542425	iong3 ii
-1.255273	iong3 j
-1.255273	iong3 k
-1.255273	iong3 l
-1.255273	iong3 m
-1.255273	iong3 sh
-0.9542425	iong3 uu	-0.5543495
-0.9542425	iong3 vv	-0.4962769
-1.255273	iong3 x
-0.9294189	iong4 </s>
-2.013101	iong4 aa	-0.4757814
-1.372123	iong4 b	-0.65935
-3.217221	iong4 c
-1.961948	iong4 ch	-0.3976408
-0.8072875	iong4 d	-0.7369998
-2.175828	iong4 ee	-0.1947383
-2.103277	iong4 f	-0.1092834
-1.041129	iong4 g	-1.025473
-1.175828	iong4 h	-0.5466833
-1.50965	iong4 ii	-0.07138336
-1.685742	iong4 j	-0.2825094
-1.916191	iong4 k	-0.2098441
-1.083682	iong4 l	-0.7841094
-1.492945	iong4 m	-0.6044344
-1.200187	iong4 n	-1.008124
-2.103277	iong4 p	-0.7345129
-1.564008	iong4 q	-0.5697754
-2.071093	iong4 r	-0.2876183
-2.217221	iong4 s	-0.9817131
-1.164142	iong4 sh	-0.6933224
-1.770063	iong4 sil	-0.2025936
-1.874798	iong4 t	-0.4285032
-1.469033	iong4 uu	-0.805303
-2.495318	iong4 vv	-0.1895601
-1.785857	iong4 x	-0.1671532
-1.916191	iong4 z	-0.1839811
-1.461346	iong4 zh	-0.4221741
-0.7781513	iong5 d
-0.4771213	iong5 l
-0.7781513	iong5 uu
-0.7781513	iong5 zh
-1.178083	iu1 </s>
-2.640481	iu1 aa
-0.7654202	iu1 b	-1.565995
-2.640481	iu1 c
-1.385209	iu1 d	-0.3503898
-2.16336	iu1 ee	-0.2670665
-1.737391	iu1 f	-0.2074865
-1.318262	iu1 g	-1.071537
-0.7009622	iu1 h	-0.9541756
-1.640481	iu1 ii	-0.1266549
-1.494353	iu1 j	-0.3659019
-1.361728	iu1 l	-0.2338785
-1.795383	iu1 m	-0.2047666
-2.038421	iu1 n	-0.1624576
-2.640481	iu1 p
-1.339451	iu1 q	-0.886553
-2.640481	iu1 r
-2.339452	iu1 s
-0.9592402	iu1 sh	-0.8634371
-2.640481	iu1 sil
-2.640481	iu1 t
-1.843107	iu1 uu	-0.2053408
-2.339452	iu1 vv	-0.3629768
-1.14912	iu1 x	-1.098292
-2.038421	iu1 z	-0.1917391
-1.298059	iu1 zh	-0.2402638
-1.401352	iu2 </s>
-2.530708	iu2 aa	-0.08902356
-1.284127	iu2 b	-0.9952987
-2.530708	iu2 c
-1.930391	iu2 ch	-0.5308678
-1.219187	iu2 d	-0.6483859
-2.455236	iu2 ee	0.127325
-1.973857	iu2 f	-0.5191777
-1.619142	iu2 g	-0.7665297
-1.520217	iu2 h	-0.4726854
-1.536607	iu2 ii	-0.2432695
-1.191913	iu2 j	-0.5593582
-2.173429	iu2 k	-0.1867913
-0.4581223	iu2 l	-1.338927
-2.106482	iu2 m	-0.4288443
-1.821247	iu2 n	0.07986641
-2.95158	iu2 oo
-2.775489	iu2 p
-1.338796	iu2 q	-1.336516
-2.455236	iu2 r	-0.1430602
-2.076519	iu2 s	-0.5531477
-1.629361	iu2 sh	-0.1807075
-2.25261	iu2 sil	0.05645572
-1.599398	iu2 t	-0.6377981
-1.433066	iu2 uu	-1.289884
-1.639827	iu2 vv	-0.8175055
-1.029894	iu2 x	-0.8853239
-2.34952	iu2 z	0.1380709
-1.74746	iu2 zh	-0.4149916
-1.214023	iu3 </s>
-1.889104	iu3 aa	-0.03536654
-1.407924	iu3 b	-0.6360966
-2.509914	iu3 c	-0.09744546
-1.920819	iu3 ch	-0.1575276
-1.201287	iu3 d	-0.4768961
-1.723329	iu3 ee	0.4978201
-1.826549	iu3 f	-0.3480755
-1.363786	iu3 g	-0.5649386
-1.650458	iu3 h	-0.2223538
-0.968041	iu3 ii	-0.7625892
-1.38818	iu3 j	-0.3091612
-1.606824	iu3 k	-0.6363299
-1.123362	iu3 l	-0.8366854
-1.165175	iu3 m	-1.295722
-1.49485	iu3 n	-0.6024611
-2.69897	iu3 oo	0.04474914
-2.895265	iu3 p	-0.09895495
-1.249001	iu3 q	-0.8001179
-1.927449	iu3 r	-0.8685444
-1.613258	iu3 s	-0.9105547
-1.005563	iu3 sh	-0.7975165
-1.781321	iu3 sil	0.03271604
-1.895265	iu3 t	-0.2647595
-1.573045	iu3 uu	0.01140547
-2	iu3 vv	-0.6743157
-1.384337	iu3 x	-0.5657586
-1.889104	iu3 z	-0.4137725
-1.340689	iu3 zh	-0.635651
-1.559868	iu4 </s>
-2.574108	iu4 aa	0.3780288
-1.306155	iu4 b	-0.682566
-2.604072	iu4 c	-0.1093274
-2.218721	iu4 ch	-0.2583921
-1.522313	iu4 d	-0.2475016
-2.034196	iu4 ee	-0.6400104
-2.231686	iu4 f	-0.2839476
-1.689502	iu4 g	-0.3406044
-1.758974	iu4 h	-0.7205055
-1.44917	iu4 ii	-0.5853434
-1.469166	iu4 j	-0.08364743
-1.30772	iu4 k	-1.122577
-1.72901	iu4 l	-0.558318
-1.626348	iu4 m	-0.7442024
-1.588832	iu4 n	-1.076285
-3.7502	iu4 oo
-2.604072	iu4 p	-0.02994184
-1.852573	iu4 q	-0.6050525
-2.708807	iu4 r	0.03624031
-1.869386	iu4 s	-1.013649
-0.335895	iu4 sh	-1.540118
-1.820781	iu4 sil	-0.139903
-2.096987	iu4 t	-0.119927
-1.577013	iu4 uu	-0.6405682
-2.096987	iu4 vv	-1.001839
-1.388472	iu4 x	-0.8830013
-1.841715	iu4 z	-0.4045687
-1.451347	iu4 zh	-0.6037114
-1.010724	iu5 </s>
-1.612784	iu5 b
-0.6350603	iu5 d	-0.8426095
-1.913814	iu5 f
-1.191911	iu5 g	-0.7568614
-1.913814	iu5 h
-1.311754	iu5 ii	-0.4660906
-1.191911	iu5 j
-1.913814	iu5 k
-1.612784	iu5 l
-1.913814	iu5 m
-1.191911	iu5 n	-0.03085846
-1.436693	iu5 r
-1.436693	iu5 sil	-0.04458615
-1.436693	iu5 t	-0.2569673
-1.436693	iu5 uu	-0.09657556
-1.913814	iu5 vv
-1.436693	iu5 x	-0.2493638
-1.191911	iu5 z	-0.2907173
-1.191911	iu5 zh	-0.3700309
-1.461649	ix1 </s>
-3.2398	ix1 aa
-1.748438	ix1 b	-0.3574764
-3.2398	ix1 c
-1.248574	ix1 ch	-0.9371445
-0.5640215	ix1 d	-1.232553
-2.442425	ix1 ee	-0.04580016
-1.491612	ix1 f	-0.8146203
-2.063709	ix1 g	-0.1953131
-0.7910935	ix1 h	-1.513708
-1.549604	ix1 ii	-0.1739641
-1.370568	ix1 j	-0.345823
-2.442425	ix1 k	-0.1134264
-1.616551	ix1 l	-0.4609764
-2.160619	ix1 m	-0.6379797
-1.347705	ix1 n	-0.6100364
-3.2398	ix1 p
-0.8934469	ix1 q	-1.36713
-2.125856	ix1 r	-0.2936292
-2.009351	ix1 s	-0.2467403
-1.523796	ix1 sh	-0.6427439
-2.33671	ix1 sil	0.02559346
-2.93877	ix1 t
-1.45447	ix1 uu	-0.5042049
-2.442425	ix1 vv	-0.1765893
-1.91758	ix1 x	-0.1812535
-2.442425	ix1 z
-1.616551	ix1 zh	-0.1983815
-1.407239	ix2 </s>
-2.681817	ix2 aa	-0.6140841
-1.371027	ix2 b	-0.8686938
-2.49276	ix2 c	-0.2779129
-2.380787	ix2 ch	-0.2877359
-1.212664	ix2 d	-0.6598715
-1.681817	ix2 ee	-1.107685
-1.334043	ix2 f	-1.264279
-1.740938	ix2 g	-0.5917536
-1.024239	ix2 h	-1.134047
-1.082728	ix2 ii	-0.7597215
-0.864071	ix2 j	-1.044592
-1.179141	ix2 k	-0.8417273
-1.596105	ix2 l	-0.4679918
-1.622839	ix2 m	-0.9190385
-1.411455	ix2 n	-0.4378117
-3.723209	ix2 oo
-2.681817	ix2 p	-0.6905763
-1.910296	ix2 q	-0.64265
-2.519089	ix2 r	-0.2492026
-1.570921	ix2 s	-1.297213
-1.465531	ix2 sh	-0.6510915
-2.024239	ix2 sil	0.01895857
-1.853978	ix2 t	-0.6074205
-1.335819	ix2 uu	-1.024347
-1.428743	ix2 vv	-1.052422
-1.437652	ix2 x	-0.8288792
-2.015639	ix2 z	-0.1093064
-1.206013	ix2 zh	-0.7263125
-1.383217	ix3 </s>
-2.513551	ix3 aa	0.2300007
-1.911491	ix3 b	-0.2344241
-2.81458	ix3 c
-1.597097	ix3 ch	-0.6171277
-1.258278	ix3 d	-0.6448394
-2.513551	ix3 ee
-2.036429	ix3 f	-0.05573922
-1.939519	ix3 g	-0.1328226
-1.597097	ix3 h	-0.2082692
-0.3744589	ix3 ii	-1.334094
-1.502827	ix3 j	-0.2159123
-1.969482	ix3 k	-0.3457367
-1.700637	ix3 l	-0.3818943
-1.700637	ix3 m	-0.2992552
-1.176091	ix3 n	-0.6709642
-2.81458	ix3 p	-0.4022945
-2.074218	ix3 q	-0.3222398
-2.318236	ix3 r	-0.2144511
-2.513551	ix3 s
-1.008401	ix3 sh	-0.7008704
-2.270513	ix3 sil	-0.2089307
-2.161368	ix3 t	-0.1531497
-1.753883	ix3 uu	-0.3431827
-2.270513	ix3 vv	-0.533935
-1.482142	ix3 x	-0.4402644
-1.793391	ix3 z	-0.4443148
-1.391335	ix3 zh	-0.2958446
-1.174622	ix4 </s>
-1.890851	ix4 aa	-0.312005
-0.9751093	ix4 b	-0.9802556
-2.32075	ix4 c	-0.4779658
-1.691897	ix4 ch	-0.6432734
-1.172934	ix4 d	-0.1697969
-1.768857	ix4 ee	-0.41106
-1.475652	ix4 f	-0.6206372
-1.631361	ix4 g	-0.8663478
-1.62178	ix4 h	-0.2407769
-1.071663	ix4 ii	-0.603461
-1.31215	ix4 j	-0.2264401
-1.862456	ix4 k	-0.3630429
-1.555963	ix4 l	-0.4357194
-1.077938	ix4 m	-0.606521
-1.277924	ix4 n	-0.4211764
-2.981932	ix4 oo	-0.1408249
-2.336837	ix4 p	-0.4715511
-1.801042	ix4 q	-0.1125652
-2.186052	ix4 r	-0.3233601
-1.854287	ix4 s	-0.5792392
-1.113679	ix4 sh	-0.6471219
-1.810693	ix4 sil	-0.1226097
-1.771078	ix4 t	-0.2318887
-1.356963	ix4 uu	-0.2721752
-2.370917	ix4 vv	0.4654448
-1.64614	ix4 x	-0.6069573
-1.438899	ix4 z	-0.5977623
-1.264539	ix4 zh	-0.6423024
-1.080281	ix5 </s>
-2.140979	ix5 aa	-0.1609539
-1.283647	ix5 b	-0.4849771
-2.099586	ix5 c	-0.2364176
-1.964888	ix5 ch	0.06334904
-1.338205	ix5 d	-0.181899
-1.726006	ix5 ee	-0.9258516
-1.91053	ix5 f	-0.5549371
-1.635829	ix5 g	-0.5135083
-1.808541	ix5 h	-0.203726
-1.194036	ix5 ii	-0.6596493
-1.280641	ix5 j	-0.2282295
-1.873807	ix5 k	-0.03120267
-1.478221	ix5 l	-0.2599822
-1.734439	ix5 m	-0.4949252
-0.9577093	ix5 n	-0.571484
-3.140979	ix5 oo	0.5171213
-2.362828	ix5 p	-0.1475407
-1.693821	ix5 q	-0.2094828
-2.265918	ix5 r	-0.4895367
-1.693821	ix5 s	-0.6536326
-0.8738074	ix5 sh	-0.7792848
-1.649617	ix5 sil	0.03381908
-1.779251	ix5 t	-0.1144183
-1.038889	ix5 uu	-0.8470296
-2.163255	ix5 vv	-0.3295151
-1.51773	ix5 x	-0.4128832
-1.51259	ix5 z	-0.3898279
-1.318158	ix5 zh	-0.4160107
-1.287354	iy1 </s>
-2.141226	iy1 aa	-0.5040362
-1.755875	iy1 b	-0.09129476
-2.685294	iy1 c
-1.944931	iy1 ch	-0.4922608
-0.816062	iy1 d	-1.06905
-2.264421	iy1 ee	-0.2712948
-1.153815	iy1 f	-0.752264
-1.755875	iy1 g	-0.1315457
-1.481174	iy1 h	-0.3230442
-1.509202	iy1 ii	-0.1989013
-1.245961	iy1 j	-0.6048634
-1.810233	iy1 k	-0.2880652
-0.9107768	iy1 l	-1.010131
-1.454845	iy1 m	-0.9668812
-1.782204	iy1 n	-0.0256862
-2.986324	iy1 oo
-2.685294	iy1 p
-1.87238	iy1 q	-0.8934085
-1.840196	iy1 r	-0.3106547
-2.083234	iy1 s	-0.1758121
-1.509202	iy1 sh	-0.8772167
-2.264421	iy1 sil	-0.1373982
-1.87238	iy1 t	-0.1880465
-1.87238	iy1 uu	-0.003658116
-1.523926	iy1 vv	-1.37061
-0.7822038	iy1 x	-1.402552
-1.606112	iy1 z	-0.4344012
-1.509202	iy1 zh	-0.4550242
-1.113943	iy2 </s>
-0.8129134	iy2 b	-0.1964052
-0.9378521	iy2 ch
-1.113943	iy2 d	-0.342657
-1.414973	iy2 ee
-1.414973	iy2 ii
-1.414973	iy2 m
-1.414973	iy2 n
-1.414973	iy2 q
-1.414973	iy2 s
-1.414973	iy2 sh
-1.113943	iy2 uu	-0.3758608
-1.414973	iy2 x
-1.414973	iy2 z
-0.9378521	iy2 zh	-0.2720663
-1.356299	iy3 </s>
-2.201397	iy3 aa
-1.479494	iy3 b	-0.1454405
-1.404023	iy3 c	-0.4276979
-2.201397	iy3 ch
-1.122216	iy3 d	-0.06890461
-2.201397	iy3 ee
-2.201397	iy3 f
-1.247155	iy3 g	-0.1739652
-1.599337	iy3 h
-0.8396693	iy3 ii	-0.610067
-1.247155	iy3 j	-0.0480151
-1.087454	iy3 l	-0.2472784
-2.201397	iy3 m
-1.404023	iy3 n	-0.2823589
-1.900367	iy3 p	-0.562763
-1.479494	iy3 q	-0.1294902
-2.201397	iy3 r
-2.201397	iy3 s
-1.247155	iy3 sh	-0.03663634
-2.201397	iy3 t
-1.160004	iy3 uu	-0.04482129
-2.201397	iy3 vv
-0.9972771	iy3 x	-0.4932944
-1.599337	iy3 z	0.02830693
-1.356299	iy3 zh	-0.1059769
-1.359682	iy4 </s>
-2.507011	iy4 aa	0.1650049
-1.3481	iy4 b	-0.8171839
-2.383815	iy4 c	-0.2205203
-2.11497	iy4 ch	-0.507838
-0.9433561	iy4 d	-0.8173477
-1.766515	iy4 ee	-0.6243023
-1.371581	iy4 f	-0.7641947
-1.383815	iy4 g	-0.8461181
-1.723763	iy4 h	-0.3194118
-1.25119	iy4 ii	-0.209621
-0.7347588	iy4 j	-1.164131
-1.79755	iy4 k	-0.712947
-1.409369	iy4 l	-0.4829479
-1.79755	iy4 m	-0.3987851
-1.660712	iy4 n	-0.8467356
-2.274671	iy4 p	-0.3914461
-1.637849	iy4 q	-0.7373884
-2.082785	iy4 r	-0.6351951
-1.422733	iy4 s	-0.8255544
-1.019398	iy4 sh	-1.07146
-1.886491	iy4 sil	0.1170526
-1.973641	iy4 t	-0.1639274
-1.359682	iy4 uu	-0.8166512
-1.867186	iy4 vv	-0.09117204
-1.450762	iy4 x	-0.9999921
-2.187521	iy4 z	-0.4492806
-1.436522	iy4 zh	-0.440022
-0.8653014	iy5 </s>
-1.157898	iy5 aa	-0.5092182
-1.572872	iy5 b	-0.2325665
-2.271842	iy5 ch
-0.7095488	iy5 d	-0.7740163
-2.572872	iy5 ee
-2.572872	iy5 f
-1.775497	iy5 g	-0.1098706
-1.426744	iy5 h	-0.3086891
-1.39678	iy5 ii	-0.4388866
-1.09575	iy5 j	-0.8171953
-1.970812	iy5 k	-0.1474442
-1.49369	iy5 l	-0.2250019
-1.157898	iy5 m	-0.6294051
-1.317599	iy5 n	-0.382535
-2.271842	iy5 oo	0.5171213
-2.572872	iy5 p
-1.775497	iy5 q	-0.2249651
-2.271842	iy5 r	-0.5528484
-2.09575	iy5 s
-1.054358	iy5 sh	-0.4502137
-1.49369	iy5 sil	0.08045334
-2.572872	iy5 t
-1.669782	iy5 uu	-0.4498862
-1.669782	iy5 x	-0.6153761
-1.970812	iy5 z	0.02830693
-1.970812	iy5 zh	-0.02796929
-1.184286	iz4 </s>
-2.029384	iz4 aa
-1.23201	iz4 b	-0.7311081
-1.23201	iz4 ch	-0.4407622
-1.029384	iz4 d	-0.2648409
-2.029384	iz4 ee
-2.029384	iz4 f
-1.728354	iz4 g
-1.075141	iz4 ii	-0.2777632
-1.126294	iz4 j	-0.08575232
-1.427324	iz4 k	-0.3586182
-0.9154404	iz4 l	-0.3181194
-2.029384	iz4 m
-1.552263	iz4 n	-0.08511375
-1.184286	iz4 q	-0.3660814
-1.728354	iz4 r	-0.5578391
-1.23201	iz4 sh	-0.1289439
-2.029384	iz4 vv
-2.029384	iz4 x
-1.23201	iz4 z	-0.3676347
-1.029384	iz4 zh	-0.2437472
-0.90309	iz5 d
-0.30103	iz5 sh	-0.69706
-0.90309	iz5 sil
-0.90309	iz5 uu
-1.098053	j i1	0.9510822
-1.534358	j i2	0.3928617
-1.013003	j i3	0.5533891
-1.201019	j i4	-0.5203785
-2.719533	j i5	-0.1070746
-1.275794	j ia1	0.1858993
-3.610415	j ia2
-2.900954	j ia3	-0.6076733
-1.907436	j ia4	-0.3829029
-2.840955	j ia5	-0.2529085
-1.583354	j ian1	-0.04072559
-2.633347	j ian2	-1.605594
-2.205212	j ian3	-0.797015
-1.191495	j ian4	0.2730663
-2.741253	j ian5	-0.4507364
-2.228513	j iang1	-0.463224
-3.487219	j iang2	-0.6180321
-2.112209	j iang3	-0.2581595
-2.286994	j iang4	-0.0559426
-3.855196	j iang5	-0.2025851
-1.663	j iao1	0.3727309
-2.359189	j iao3	-0.3835526
-1.683957	j iao4	0.1116906
-1.504302	j ie1	-0.1502297
-1.825812	j ie2	0.4271245
-1.853751	j ie3	-0.4101225
-2.079464	j ie4	-0.3304561
-3.855196	j ie5
-1.65471	j in1	-0.4001446
-3.186189	j in2	-1.364915
-2.43469	j in3	-0.3262436
-1.420095	j in4	-0.4508814
-1.270488	j ing1	0.02684879
-2.624747	j ing3	-0.04596502
-2.180029	j ing4	-0.2481021
-4.031287	j ing5
-4.332317	j iong2
-4.332317	j iong3
-2.532977	j iu1	-0.3136193
-2.218374	j iu2	-2.012957
-1.450362	j iu3	-0.7826937
-0.6886672	j iu4	-0.00329113
-4.332317	j iu5
-2.679105	j v1	-0.2079704
-2.512773	j v2	-0.4296768
-2.698849	j v3	-0.09603977
-1.714269	j v4	-0.4544032
-4.332317	j v5
-4.332317	j van1
-3.487219	j van4	-0.2845479
-1.791988	j ve2	0.9398922
-4.332317	j ve4
-2.279239	j vn1	0.3724573
-3.610415	j vn4
-3.288975	k a1	-0.3575882
-3.413914	k a2	-0.5838482
-1.665726	k a3	0.122898
-0.964693	k ai1	-0.5137942
-2.811854	k ai3	-0.3413659
-3.413914	k ai5
-2.612282	k an1	-0.4942199
-3.413914	k an3
-0.799017	k an4	-0.62088
-2.105705	k an5	0.144784
-1.977222	k ang1	-0.3813511
-2.891035	k ang4	-0.04976607
-3.891035	k ao2
-2.112884	k ao3	-0.563183
-2.443877	k ao4	-0.2516393
-1.754315	k e1	-0.6380913
-0.7780954	k e2	-2.194675
-1.318164	k e3	-0.08505714
-1.115061	k e4	-0.8045449
-1.874002	k en3	-1.331725
-3.045937	k eng1	-0.08700386
-2.311252	k ong1	-0.5747466
-3.891035	k ong2
-3.093661	k ong3	-0.2576013
-2.459672	k ong4	-0.2317108
-3.590005	k ou2	-0.5371141
-2.105705	k ou3	0.03201157
-1.430138	k ou4	-0.1559304
-3.288975	k ou5
-3.413914	k u1
-3.590005	k u2	-0.5456511
-2.568816	k u3	-0.1152837
-2.714944	k u4	-0.1625477
-3.590005	k ua1
-3.891035	k ua3
-3.093661	k ua4	-0.462317
-0.6683189	k uai4	0.4603238
-1.787232	k uan1	-1.475735
-2.112884	k uan3	0.4286264
-3.891035	k uang1
-3.891035	k uang2
-1.566753	k uang4	0.3912811
-3.169133	k ui1	-0.1366614
-3.413914	k ui2
-2.346967	k ui4	-0.3568801
-3.045937	k un1	-0.09192041
-2.891035	k un2	-1.022909
-3.590005	k un3
-2.891035	k un4	-0.3281515
-1.849643	k uo4	-0.355061
-2.772908	l a1	-0.1741043
-4.170848	l a3
-3.869818	l a4
-1.68089	l a5	0.1515081
-1.162248	l ai2	1.095746
-3.32575	l ai4	-0.477951
-2.113943	l ai5	0.1229481
-2.639369	l an2	0.008003354
-2.966728	l an3	-0.414436
-3.869818	l an4
-3.32575	l ang2
-3.448946	l ang3	-0.10793
-2.614546	l ang4	-0.3686482
-4.170848	l ao1
-2.527395	l ao2	-0.4819179
-2.19772	l ao3	-0.359606
-4.170848	l ao4
-2.489607	l e4	-0.2759054
-0.5899232	l e5	0.8471746
-3.869818	l ei1
-3.216606	l ei2	-0.06866264
-2.62678	l ei3	-0.4892629
-2.012486	l ei4	-0.579591
-2.231329	l ei5	-0.2511609
-3.373474	l eng3	-0.2632155
-2.088063	l i2	-0.5612953
-1.114324	l i3	0.01655769
-1.294053	l i4	-0.3113939
-2.42266	l i5	-0.2688847
-2.848629	l ia3	-0.08990474
-1.368759	l ian2	-0.9725948
-2.848629	l ian4	-0.1743914
-2.000587	l iang2	-0.5360211
-1.37986	l iang3	-0.7234699
-1.274873	l iang4	-0.6298839
-3.056905	l iang5	-0.0566467
-1.986157	l iao2	-0.5672258
-2.639369	l iao3	-0.2342426
-2.102662	l iao4	-0.3948619
-3.170848	l ie3	-0.3241448
-2.32575	l ie4	-0.2026793
-2.262363	l in2	-0.3944529
-4.170848	l in4
-1.092391	l ing2	-0.1240911
-2.53738	l ing3	-0.8250107
-2.202365	l ing4	-0.9295849
-1.263437	l iu2	-0.6411434
-3.693727	l iu3
-1.16825	l iu4	-0.8795574
-3.216606	l o5	-0.07833175
-2.547599	l ong2	-0.2314255
-4.170848	l ong3
-4.170848	l ong5
-2.49875	l ou2	-0.1984369
-3.448946	l ou4	-0.2332791
-3.448946	l ou5	-0.3283997
-3.267758	l u2	-0.08222035
-3.170848	l u3	-0.3343755
-1.62678	l u4	1.42769
-4.170848	l u5
-4.170848	l uan2
-2.848629	l uan4	-0.1416176
-4.170848	l un1
-3.02472	l un2	-0.1644064
-2.284358	l un4	-0.3712564
-3.02472	l uo2	-0.2123467
-1.865497	l uo4	-0.6856539
-3.869818	l v2
-2.50809	l v3	-0.6467093
-1.991871	l v4	-0.2081634
-3.373474	l v5	-0.1812501
-2.940399	l ve4	-0.1081634
-2.689214	m a1	-0.2002437
-1.957395	m a2	-0.8905463
-1.26247	m a3	-0.6204486
-0.6325811	m a5	0.1555803
-3.182129	m ai2	-0.2122457
-1.812089	m ai3	-0.5920294
-2.492919	m ai4	-0.3802041
-3.414469	m an2
-1.934975	m an3	-0.6905532
-2.206953	m an4	-0.8221532
-2.523588	m ang2	-0.1880082
-3.338997	m ao1
-1.799912	m ao2	-1.051425
-2.330192	m ao4	-0.4317507
-0.880858	m e5	-0.2058764
-0.8088084	m ei2	-0.2745311
-1.45063	m ei3	-0.7793751
-3.414469	m ei4	-0.1266097
-4.136372	m ei5
-1.850814	m en2	-0.1721923
-4.136372	m en4
-0.8911059	m en5	0.9435358
-4.136372	m eng1
-2.905923	m eng2	-0.3223392
-3.291274	m eng3	-0.2529382
-2.990244	m eng4	-0.4327969
-3.182129	m i2	0.05964835
-2.75616	m i3	-0.4076879
-1.769016	m i4	-1.182583
-3.414469	m ian2	-0.1398334
-1.969054	m ian3	-0.6201521
-1.459678	m ian4	-0.1868047
-2.233282	m ian5	0.2260907
-3.233282	m iao2	-0.2951083
-3.835342	m iao3
-3.182129	m iao4	-0.05908362
-3.65925	m ie4
-1.65065	m in2	-0.6288226
-3.338997	m in3	-0.08915404
-1.346087	m ing2	-0.31261
-2.464274	m ing4	-0.3868343
-3.835342	m ing5	-0.5252665
-4.136372	m iu4
-2.64501	m o2	-0.07125822
-3.835342	m o3	-0.09189925
-2.631222	m o4	-0.2363621
-4.136372	m o5
-3.414469	m ou2	-0.1427261
-2.990244	m ou3	-0.2542258
-3.414469	m u2	-0.3444704
-2.738432	m u3	-0.1987601
-1.814152	m u4	-0.6998976
-2.835342	m u5	-0.2274812
-2.248549	n a2	-0.7808461
-1.699806	n a3	-0.4373513
-0.6198506	n a4	-0.05179691
-2.921965	n a5	-0.3163999
-3.138674	n ai3	-0.394312
-2.678927	n ai4	-1.194032
-3.767063	n ai5
-2.178791	n an2	0.01753628
-4.369123	n an4
-4.369123	n an5
-3.466033	n ao2	-0.2450058
-1.990725	n ao3	-0.6282541
-3.767063	n ao4
-1.112887	n e5	1.626271
-1.753173	n ei4	0.002339363
-4.068093	n en4
-1.260896	n eng2	0.1600559
-1.592422	n i2	-1.792429
-1.039522	n i3	0.6271253
-1.353763	n ian2	-0.1997621
-2.778059	n ian4	-0.3915651
-3.767063	n ian5	-0.1325826
-3.64722	n iang5
-3.767063	n iao3
-3.466033	n iao4	-0.466537
-4.369123	n ie1
-3.466033	n ie4	-0.2274287
-0.4251342	n in2	-0.2697535
-3.0267	n ing2	-0.1732979
-4.369123	n ing3
-3.892002	n ing4	-0.2773055
-2.921965	n iu2	-0.3226708
-3.64722	n iu3	-0.121807
-2.141236	n ong2	-0.9999092
-2.850609	n ong4	-0.3462071
-3.892002	n ong5
-2.863973	n u3	-1.478445
-4.068093	n u4
-3.369123	n uan3	0.1745357
-2.687882	n uo4	-0.1665002
-4.369123	n v2
-2.09961	n v3	-0.792795
-4.369123	n v5
-1.295567	o1 </s>
-2.374748	o1 aa
-1.577374	o1 b	-0.3697031
-1.772688	o1 ch	-0.1417976
-0.3661482	o1 d	-1.006699
-1.897627	o1 ee	-0.04469787
-2.073718	o1 f
-1.652846	o1 g	-0.1186865
-1.333356	o1 h	-0.7231362
-1.295567	o1 ii	-0.03354256
-1.577374	o1 j	-0.276747
-2.073718	o1 k
-1.333356	o1 l	-0.03133729
-1.772688	o1 m	-0.8104377
-1.260805	o1 n	-0.09050733
-1.652846	o1 oo	-0.7362503
-1.333356	o1 sh	-0.164749
-1.652846	o1 sil	0.0757429
-1.897627	o1 t	-0.2414987
-2.073718	o1 uu
-2.073718	o1 vv
-1.52965	o1 x	-0.675292
-1.577374	o1 zh	-0.1973947
-1.132045	o2 </s>
-1.628389	o2 b
-1.207516	o2 d	-0.348896
-1.929419	o2 ee
-1.327359	o2 f
-1.929419	o2 g
-1.327359	o2 h	-0.197185
-1.026329	o2 ii	-0.2475564
-1.452298	o2 j	-0.2806495
-0.6506653	o2 k	-0.9430545
-1.628389	o2 l
-1.929419	o2 m
-1.628389	o2 n	-0.5274403
-1.929419	o2 q
-0.6506653	o2 sh	-0.7910448
-1.452298	o2 t	-0.2871213
-1.929419	o2 uu
-1.628389	o2 x
-0.1760913	o3 d
-1.146506	o4 </s>
-2.06032	o4 aa	0.3317922
-1.613162	o4 b	-0.4251565
-2.106077	o4 ch	-0.3226008
-1.319957	o4 d	-0.6047615
-1.680109	o4 ee	0.07952261
-2.338417	o4 f	-0.1448912
-2.262946	o4 g
-1.078049	o4 h	-0.8420646
-1.447536	o4 ii	0.001772583
-1.304445	o4 j	-0.7192743
-2.215222	o4 k	-0.0224333
-2.262946	o4 l	-0.221835
-1.645347	o4 m	-0.5099016
-0.6801088	o4 n	-1.330333
-1.185259	o4 oo	-0.7889194
-3.06032	o4 p
-1.914192	o4 q	-0.283235
-1.914192	o4 r	-0.3201945
-2.15723	o4 s	-0.6168774
-1.426852	o4 sh	-0.6117547
-1.336044	o4 sil	-0.08678496
-1.8562	o4 t	-0.6578197
-1.091837	o4 uu	-0.9216145
-2.75929	o4 vv	-0.4962769
-1.191088	o4 x	-0.8452405
-2.018927	o4 z	-0.1248035
-1.344317	o4 zh	-0.7041296
-0.4541885	o5 </s>
-1.176091	o5 d
-1.176091	o5 ee
-0.8750613	o5 h
-1.176091	o5 k
-1.176091	o5 l
-1.176091	o5 n
-1.176091	o5 s
-1.176091	o5 uu
-1.437064	ong1 </s>
-2.141602	ong1 aa	-0.9943321
-1.884775	ong1 b	-0.3310899
-2.59157	ong1 c	-0.2529775
-1.632963	ong1 ch	-0.6464376
-1.175081	ong1 d	-0.6192604
-2.51902	ong1 ee	0.2154696
-1.862111	ong1 f	-0.6572099
-0.8207185	ong1 g	-1.59474
-1.397435	ong1 h	-1.008371
-1.155842	ong1 ii	-0.8267351
-1.407654	ong1 j	-0.5257609
-2.428843	ong1 k	-0.1574259
-1.349662	ong1 l	-0.8024628
-1.884775	ong1 m	-0.5540867
-1.428843	ong1 n	-0.6898816
-3.155842	ong1 oo	0.7964066
-2.835589	ong1 p	0.04558496
-1.840572	ong1 q	-0.335848
-2.101484	ong1 r	-0.2339772
-0.9279552	ong1 s	-1.771372
-1.415479	ong1 sh	-0.7165338
-2.020179	ong1 sil	-0.125868
-1.989511	ong1 t	-0.7561018
-1.854812	ong1 uu	-0.278208
-2.553782	ong1 vv	-0.3890007
-1.131904	ong1 x	-1.044891
-1.054324	ong1 z	-1.438845
-1.258215	ong1 zh	-0.8015462
-1.18089	ong2 </s>
-2.049218	ong2 aa	-0.6866348
-1.631683	ong2 b	-0.3276173
-1.48192	ong2 c	-1.225791
-2.121769	ong2 ch	-0.05549843
-1.356981	ong2 d	-0.4801751
-1.884408	ong2 ee	-0.5606634
-1.59496	ong2 f	-0.6131545
-1.619093	ong2 g	-0.3090743
-1.129738	ong2 h	-0.8974123
-0.7757716	ong2 ii	-0.836862
-1.539912	ong2 j	-0.3742603
-2.121769	ong2 k	-0.3575381
-1.606859	ong2 l	-0.239418
-1.438885	ong2 m	-0.6565084
-1.117838	ong2 n	-0.3843606
-3.163161	ong2 p
-1.519709	ong2 q	-0.6391356
-2.441259	ong2 r	0.01179497
-2.68604	ong2 s
-1.052572	ong2 sh	-0.7272355
-2.68604	ong2 sil
-1.529693	ong2 t	-0.5536984
-1.658011	ong2 uu	-0.08267394
-2.260071	ong2 vv	-0.208746
-1.167526	ong2 x	-0.8136643
-2.08398	ong2 z	-0.2382869
-1.106256	ong2 zh	-0.8859776
-1.128689	ong3 </s>
-2.517855	ong3 aa
-1.496666	ong3 b	-0.3394974
-2.216825	ong3 c
-1.739704	ong3 ch	-0.1092351
-1.156128	ong3 d	-0.413515
-2.096983	ong3 ee	-0.1113087
-1.403912	ong3 f	-0.559653
-1.040734	ong3 g	-1.003283
-1.517855	ong3 h	-0.2964319
-0.9555625	ong3 ii	-0.862412
-0.9737874	ong3 j	-0.6551347
-2.096983	ong3 k
